{"learner":{"attributes":{"best_iteration":"599","best_ntree_limit":"600","scikit_learn":"{\"use_label_encoder\": null, \"n_estimators\": 600, \"objective\": \"binary:logistic\", \"max_depth\": 2, \"max_leaves\": null, \"max_bin\": null, \"grow_policy\": null, \"learning_rate\": 0.1, \"verbosity\": null, \"booster\": null, \"tree_method\": null, \"gamma\": null, \"min_child_weight\": null, \"max_delta_step\": null, \"subsample\": null, \"sampling_method\": null, \"colsample_bytree\": null, \"colsample_bylevel\": null, \"colsample_bynode\": null, \"reg_alpha\": null, \"reg_lambda\": null, \"scale_pos_weight\": null, \"base_score\": null, \"missing\": NaN, \"num_parallel_tree\": null, \"random_state\": null, \"n_jobs\": null, \"monotone_constraints\": null, \"interaction_constraints\": null, \"importance_type\": null, \"gpu_id\": null, \"validate_parameters\": null, \"predictor\": null, \"enable_categorical\": false, \"feature_types\": null, \"max_cat_to_onehot\": null, \"max_cat_threshold\": null, \"eval_metric\": null, \"early_stopping_rounds\": null, \"callbacks\": null, \"classes_\": [0.0, 1.0], \"n_classes_\": 2, \"_estimator_type\": \"classifier\"}"},"feature_names":[],"feature_types":[],"gradient_booster":{"model":{"gbtree_model_param":{"num_parallel_tree":"1","num_trees":"600","size_leaf_vector":"0"},"tree_info":[0,0,0,0,0,0,0,0,0,0,0,0,0,0,0,0,0,0,0,0,0,0,0,0,0,0,0,0,0,0,0,0,0,0,0,0,0,0,0,0,0,0,0,0,0,0,0,0,0,0,0,0,0,0,0,0,0,0,0,0,0,0,0,0,0,0,0,0,0,0,0,0,0,0,0,0,0,0,0,0,0,0,0,0,0,0,0,0,0,0,0,0,0,0,0,0,0,0,0,0,0,0,0,0,0,0,0,0,0,0,0,0,0,0,0,0,0,0,0,0,0,0,0,0,0,0,0,0,0,0,0,0,0,0,0,0,0,0,0,0,0,0,0,0,0,0,0,0,0,0,0,0,0,0,0,0,0,0,0,0,0,0,0,0,0,0,0,0,0,0,0,0,0,0,0,0,0,0,0,0,0,0,0,0,0,0,0,0,0,0,0,0,0,0,0,0,0,0,0,0,0,0,0,0,0,0,0,0,0,0,0,0,0,0,0,0,0,0,0,0,0,0,0,0,0,0,0,0,0,0,0,0,0,0,0,0,0,0,0,0,0,0,0,0,0,0,0,0,0,0,0,0,0,0,0,0,0,0,0,0,0,0,0,0,0,0,0,0,0,0,0,0,0,0,0,0,0,0,0,0,0,0,0,0,0,0,0,0,0,0,0,0,0,0,0,0,0,0,0,0,0,0,0,0,0,0,0,0,0,0,0,0,0,0,0,0,0,0,0,0,0,0,0,0,0,0,0,0,0,0,0,0,0,0,0,0,0,0,0,0,0,0,0,0,0,0,0,0,0,0,0,0,0,0,0,0,0,0,0,0,0,0,0,0,0,0,0,0,0,0,0,0,0,0,0,0,0,0,0,0,0,0,0,0,0,0,0,0,0,0,0,0,0,0,0,0,0,0,0,0,0,0,0,0,0,0,0,0,0,0,0,0,0,0,0,0,0,0,0,0,0,0,0,0,0,0,0,0,0,0,0,0,0,0,0,0,0,0,0,0,0,0,0,0,0,0,0,0,0,0,0,0,0,0,0,0,0,0,0,0,0,0,0,0,0,0,0,0,0,0,0,0,0,0,0,0,0,0,0,0,0,0,0,0,0,0,0,0,0,0,0,0,0,0,0,0,0,0,0,0,0,0,0,0,0,0,0,0,0,0,0,0,0,0,0,0,0,0,0,0,0,0,0,0,0,0,0,0,0,0,0,0,0,0,0,0,0,0,0,0,0,0,0,0,0,0,0,0,0,0,0,0,0,0,0,0,0,0,0,0,0,0,0,0,0,0,0,0,0,0,0,0,0,0,0,0,0,0,0,0,0,0,0,0,0,0,0,0,0,0,0,0,0,0,0,0,0,0,0,0],"trees":[{"base_weights":[1.294964E-1,1.8888888E0,-1.6619718E0,5E-1,-1.8208956E0],"categories":[],"categories_nodes":[],"categories_segments":[],"categories_sizes":[],"default_left":[1,0,1,0,0],"id":0,"left_children":[1,-1,3,-1,-1],"loss_changes":[1.12667656E2,0E0,7.009144E0,0E0,0E0],"parents":[2147483647,0,0,2,2],"right_children":[2,-1,4,-1,-1],"split_conditions":[1.00212427E3,1.8888889E-1,4.3556553E-1,5E-2,-1.8208955E-1],"split_indices":[58,0,0,0,0],"split_type":[0,0,0,0,0],"sum_hessian":[3.375E1,1.7E1,1.675E1,1E0,1.575E1],"tree_param":{"num_deleted":"0","num_feature":"68","num_nodes":"5","size_leaf_vector":"0"}},{"base_weights":[1.19192585E-1,1.7272103E0,-1.5169345E0,-1.6638001E0,2.3122439E-1],"categories":[],"categories_nodes":[],"categories_segments":[],"categories_sizes":[],"default_left":[1,0,1,0,0],"id":1,"left_children":[1,-1,3,-1,-1],"loss_changes":[9.330477E1,0E0,4.907902E0,0E0,0E0],"parents":[2147483647,0,0,2,2],"right_children":[2,-1,4,-1,-1],"split_conditions":[1.1255552E3,1.7272103E-1,1.7668378E-2,-1.6638002E-1,2.312244E-2],"split_indices":[62,0,14,0,0],"split_type":[0,0,0,0,0],"sum_hessian":[3.3468803E1,1.6851322E1,1.661748E1,1.537413E1,1.2433492E0],"tree_param":{"num_deleted":"0","num_feature":"68","num_nodes":"5","size_leaf_vector":"0"}},{"base_weights":[1.1060155E-1,1.6009849E0,-1.4010792E0,-2.3003379E-2,-1.6012168E0],"categories":[],"categories_nodes":[],"categories_segments":[],"categories_sizes":[],"default_left":[1,0,1,0,0],"id":2,"left_children":[1,-1,3,-1,-1],"loss_changes":[7.828106E1,0E0,4.7314262E0,0E0,0E0],"parents":[2147483647,0,0,2,2],"right_children":[2,-1,4,-1,-1],"split_conditions":[1.00212427E3,1.600985E-1,7.825632E1,-2.300338E-3,-1.6012168E-1],"split_indices":[58,0,57,0,0],"split_type":[0,0,0,0,0],"sum_hessian":[3.2749886E1,1.6461363E1,1.6288523E1,2.2069817E0,1.4081541E1],"tree_param":{"num_deleted":"0","num_feature":"68","num_nodes":"5","size_leaf_vector":"0"}},{"base_weights":[1.0280487E-1,1.502303E0,-1.3094872E0,3.0276656E-1,-1.4537226E0],"categories":[],"categories_nodes":[],"categories_segments":[],"categories_sizes":[],"default_left":[1,0,1,0,0],"id":3,"left_children":[1,-1,3,-1,-1],"loss_changes":[6.666534E1,0E0,4.353071E0,0E0,0E0],"parents":[2147483647,0,0,2,2],"right_children":[2,-1,4,-1,-1],"split_conditions":[1.1255552E3,1.502303E-1,2.08345E4,3.0276656E-2,-1.4537226E-1],"split_indices":[62,0,44,0,0],"split_type":[0,0,0,0,0],"sum_hessian":[3.173366E1,1.5907014E1,1.5826647E1,1.2093617E0,1.4617285E1],"tree_param":{"num_deleted":"0","num_feature":"68","num_nodes":"5","size_leaf_vector":"0"}},{"base_weights":[9.755565E-2,1.2580196E0,-1.422187E0,1.4239551E0,-1.0939253E-1],"categories":[],"categories_nodes":[],"categories_segments":[],"categories_sizes":[],"default_left":[1,1,0,0,0],"id":4,"left_children":[1,3,-1,-1,-1],"loss_changes":[5.734924E1,4.3294086E0,0E0,0E0,0E0],"parents":[2147483647,0,0,1,1],"right_children":[2,4,-1,-1,-1],"split_conditions":[7.825632E1,1.003399E3,-1.422187E-1,1.4239551E-1,-1.09392535E-2],"split_indices":[57,58,0,0,0],"split_type":[0,0,0,0,0],"sum_hessian":[3.0503681E1,1.7393984E1,1.3109698E1,1.547477E1,1.9192139E0],"tree_param":{"num_deleted":"0","num_feature":"68","num_nodes":"5","size_leaf_vector":"0"}},{"base_weights":[9.1772944E-2,1.1913346E0,-1.3522466E0,1.3554906E0,-1.0233234E-1],"categories":[],"categories_nodes":[],"categories_segments":[],"categories_sizes":[],"default_left":[1,1,0,0,0],"id":5,"left_children":[1,3,-1,-1,-1],"loss_changes":[4.9448067E1,3.8838844E0,0E0,0E0,0E0],"parents":[2147483647,0,0,1,1],"right_children":[2,4,-1,-1,-1],"split_conditions":[7.825632E1,1.003399E3,-1.3522467E-1,1.3554905E-1,-1.0233234E-2],"split_indices":[57,58,0,0,0],"split_type":[0,0,0,0,0],"sum_hessian":[2.9128122E1,1.6635704E1,1.2492419E1,1.47200575E1,1.9156463E0],"tree_param":{"num_deleted":"0","num_feature":"68","num_nodes":"5","size_leaf_vector":"0"}},{"base_weights":[8.677641E-2,1.1337512E0,-1.2931391E0,1.297704E0,-9.572739E-2],"categories":[],"categories_nodes":[],"categories_segments":[],"categories_sizes":[],"default_left":[1,1,0,0,0],"id":6,"left_children":[1,3,-1,-1,-1],"loss_changes":[4.2890095E1,3.5179214E0,0E0,0E0,0E0],"parents":[2147483647,0,0,1,1],"right_children":[2,4,-1,-1,-1],"split_conditions":[7.825632E1,1.003399E3,-1.2931392E-1,1.297704E-1,-9.57274E-3],"split_indices":[57,58,0,0,0],"split_type":[0,0,0,0,0],"sum_hessian":[2.7672352E1,1.5835768E1,1.1836583E1,1.392355E1,1.9122183E0],"tree_param":{"num_deleted":"0","num_feature":"68","num_nodes":"5","size_leaf_vector":"0"}},{"base_weights":[8.2382806E-2,1.0831752E0,-1.2424008E0,1.2703519E0,-1.4309677E-3],"categories":[],"categories_nodes":[],"categories_segments":[],"categories_sizes":[],"default_left":[1,1,0,0,0],"id":7,"left_children":[1,3,-1,-1,-1],"loss_changes":[3.7385185E1,3.2538757E0,0E0,0E0,0E0],"parents":[2147483647,0,0,1,1],"right_children":[2,4,-1,-1,-1],"split_conditions":[7.825632E1,4.6992308E-1,-1.2424008E-1,1.2703519E-1,-1.4309677E-4],"split_indices":[57,0,0,0,0],"split_type":[0,0,0,0,0],"sum_hessian":[2.6182487E1,1.5018963E1,1.1163525E1,1.2662471E1,2.356492E0],"tree_param":{"num_deleted":"0","num_feature":"68","num_nodes":"5","size_leaf_vector":"0"}},{"base_weights":[7.8667104E-2,1.2048868E0,-1.0154216E0,-1.1636645E0,3.4562442E-1],"categories":[],"categories_nodes":[],"categories_segments":[],"categories_sizes":[],"default_left":[1,0,1,0,0],"id":8,"left_children":[1,-1,3,-1,-1],"loss_changes":[3.2940376E1,0E0,3.14602E0,0E0,0E0],"parents":[2147483647,0,0,2,2],"right_children":[2,-1,4,-1,-1],"split_conditions":[1.1255552E3,1.2048868E-1,1.7668378E-2,-1.16366446E-1,3.4562442E-2],"split_indices":[62,0,14,0,0],"split_type":[0,0,0,0,0],"sum_hessian":[2.4740395E1,1.2141281E1,1.25991125E1,1.1492402E1,1.1067113E0],"tree_param":{"num_deleted":"0","num_feature":"68","num_nodes":"5","size_leaf_vector":"0"}},{"base_weights":[7.696344E-2,1.006252E0,-1.1632017E0,-1.03801206E-1,1.1683198E0],"categories":[],"categories_nodes":[],"categories_segments":[],"categories_sizes":[],"default_left":[1,1,0,0,0],"id":9,"left_children":[1,3,-1,-1,-1],"loss_changes":[2.9170227E1,2.7163143E0,0E0,0E0,0E0],"parents":[2147483647,0,0,1,1],"right_children":[2,4,-1,-1,-1],"split_conditions":[7.825632E1,5.371584E-3,-1.1632017E-1,-1.0380121E-2,1.1683198E-1],"split_indices":[57,14,0,0,0],"split_type":[0,0,0,0,0],"sum_hessian":[2.32954E1,1.3424603E1,9.870796E0,1.7560918E0,1.1668511E1],"tree_param":{"num_deleted":"0","num_feature":"68","num_nodes":"5","size_leaf_vector":"0"}},{"base_weights":[7.308803E-2,1.1364504E0,-9.423413E-1,3.2202804E-1,-1.0883303E0],"categories":[],"categories_nodes":[],"categories_segments":[],"categories_sizes":[],"default_left":[1,0,1,0,0],"id":10,"left_children":[1,-1,3,-1,-1],"loss_changes":[2.5843828E1,0E0,2.6176424E0,0E0,0E0],"parents":[2147483647,0,0,2,2],"right_children":[2,-1,4,-1,-1],"split_conditions":[1.00212427E3,1.1364504E-1,4.5066795E-1,3.2202806E-2,-1.0883303E-1],"split_indices":[58,0,0,0,0],"split_type":[0,0,0,0,0],"sum_hessian":[2.1942774E1,1.0660191E1,1.1282583E1,1.0430636E0,1.0239519E1],"tree_param":{"num_deleted":"0","num_feature":"68","num_nodes":"5","size_leaf_vector":"0"}},{"base_weights":[7.198321E-2,9.4052315E-1,-1.099754E0,1.130752E0,-1.2441464E-2],"categories":[],"categories_nodes":[],"categories_segments":[],"categories_sizes":[],"default_left":[1,1,0,0,0],"id":11,"left_children":[1,3,-1,-1,-1],"loss_changes":[2.3004862E1,2.3593588E0,0E0,0E0,0E0],"parents":[2147483647,0,0,1,1],"right_children":[2,4,-1,-1,-1],"split_conditions":[7.825632E1,4.6992308E-1,-1.099754E-1,1.130752E-1,-1.2441464E-3],"split_indices":[57,0,0,0,0],"split_type":[0,0,0,0,0],"sum_hessian":[2.0588392E1,1.19373E1,8.651093E0,9.7954E0,2.1418993E0],"tree_param":{"num_deleted":"0","num_feature":"68","num_nodes":"5","size_leaf_vector":"0"}},{"base_weights":[6.9211565E-2,1.0800442E0,-8.770023E-1,-1.0324413E0,3.2930937E-1],"categories":[],"categories_nodes":[],"categories_segments":[],"categories_sizes":[],"default_left":[1,0,1,0,0],"id":12,"left_children":[1,-1,3,-1,-1],"loss_changes":[2.0378763E1,0E0,2.4110737E0,0E0,0E0],"parents":[2147483647,0,0,2,2],"right_children":[2,-1,4,-1,-1],"split_conditions":[1.1255552E3,1.0800441E-1,1.7668378E-2,-1.03244126E-1,3.2930937E-2],"split_indices":[62,0,14,0,0],"split_type":[0,0,0,0,0],"sum_hessian":[1.9316046E1,9.270746E0,1.00453005E1,9.026346E0,1.0189536E0],"tree_param":{"num_deleted":"0","num_feature":"68","num_nodes":"5","size_leaf_vector":"0"}},{"base_weights":[6.861202E-2,8.8733417E-1,-1.047288E0,-1.2070807E-1,1.0560483E0],"categories":[],"categories_nodes":[],"categories_segments":[],"categories_sizes":[],"default_left":[1,1,0,0,0],"id":13,"left_children":[1,3,-1,-1,-1],"loss_changes":[1.8370762E1,2.0922928E0,0E0,0E0,0E0],"parents":[2147483647,0,0,1,1],"right_children":[2,4,-1,-1,-1],"split_conditions":[7.825632E1,5.371584E-3,-1.04728796E-1,-1.2070808E-2,1.0560483E-1],"split_indices":[57,14,0,0,0],"split_type":[0,0,0,0,0],"sum_hessian":[1.809067E1,1.0552937E1,7.537734E0,1.553793E0,8.999144E0],"tree_param":{"num_deleted":"0","num_feature":"68","num_nodes":"5","size_leaf_vector":"0"}},{"base_weights":[6.512352E-2,1.0330433E0,-8.2262987E-1,2.0762904E-1,-9.70359E-1],"categories":[],"categories_nodes":[],"categories_segments":[],"categories_sizes":[],"default_left":[1,0,1,0,0],"id":14,"left_children":[1,-1,3,-1,-1],"loss_changes":[1.6294928E1,0E0,1.7131572E0,0E0,0E0],"parents":[2147483647,0,0,2,2],"right_children":[2,-1,4,-1,-1],"split_conditions":[1.00212427E3,1.0330433E-1,4.5366958E-1,2.0762904E-2,-9.703591E-2],"split_indices":[58,0,0,0,0],"split_type":[0,0,0,0,0],"sum_hessian":[1.697461E1,8.042353E0,8.932257E0,1.0693277E0,7.8629293E0],"tree_param":{"num_deleted":"0","num_feature":"68","num_nodes":"5","size_leaf_vector":"0"}},{"base_weights":[6.434126E-2,8.3810705E-1,-1.0020865E0,1.0694826E0,4.2183507E-2],"categories":[],"categories_nodes":[],"categories_segments":[],"categories_sizes":[],"default_left":[1,1,0,0,0],"id":15,"left_children":[1,3,-1,-1,-1],"loss_changes":[1.4780591E1,1.8581924E0,0E0,0E0,0E0],"parents":[2147483647,0,0,1,1],"right_children":[2,4,-1,-1,-1],"split_conditions":[7.825632E1,4.136875E0,-1.00208655E-1,1.0694826E-1,4.2183506E-3],"split_indices":[57,7,0,0,0],"split_type":[0,0,0,0,0],"sum_hessian":[1.5894476E1,9.335231E0,6.5592456E0,6.966395E0,2.3688357E0],"tree_param":{"num_deleted":"0","num_feature":"68","num_nodes":"5","size_leaf_vector":"0"}},{"base_weights":[6.229482E-2,9.919458E-1,-7.7344954E-1,-9.3418026E-1,2.3216204E-1],"categories":[],"categories_nodes":[],"categories_segments":[],"categories_sizes":[],"default_left":[1,0,1,0,0],"id":16,"left_children":[1,-1,3,-1,-1],"loss_changes":[1.3140764E1,0E0,1.6632261E0,0E0,0E0],"parents":[2147483647,0,0,2,2],"right_children":[2,-1,4,-1,-1],"split_conditions":[1.1255552E3,9.919458E-2,1.3207279E-2,-9.3418024E-2,2.3216205E-2],"split_indices":[62,0,14,0,0],"split_type":[0,0,0,0,0],"sum_hessian":[1.492578E1,6.977437E0,7.948343E0,6.9142456E0,1.0340973E0],"tree_param":{"num_deleted":"0","num_feature":"68","num_nodes":"5","size_leaf_vector":"0"}},{"base_weights":[6.1904933E-2,7.941139E-1,-9.617838E-1,-1.3553232E-1,9.7182286E-1],"categories":[],"categories_nodes":[],"categories_segments":[],"categories_sizes":[],"default_left":[1,1,0,0,0],"id":17,"left_children":[1,3,-1,-1,-1],"loss_changes":[1.1990824E1,1.6648474E0,0E0,0E0,0E0],"parents":[2147483647,0,0,1,1],"right_children":[2,4,-1,-1,-1],"split_conditions":[7.825632E1,5.371584E-3,-9.617838E-2,-1.3553232E-2,9.718229E-2],"split_indices":[57,14,0,0,0],"split_type":[0,0,0,0,0],"sum_hessian":[1.3978316E1,8.280107E0,5.6982093E0,1.366884E0,6.9132223E0],"tree_param":{"num_deleted":"0","num_feature":"68","num_nodes":"5","size_leaf_vector":"0"}},{"base_weights":[5.8361582E-2,7.629163E-1,-9.4083685E-1,1.0108464E0,-2.1597727E-3],"categories":[],"categories_nodes":[],"categories_segments":[],"categories_sizes":[],"default_left":[1,1,0,0,0],"id":18,"left_children":[1,3,-1,-1,-1],"loss_changes":[1.0656817E1,1.6774979E0,0E0,0E0,0E0],"parents":[2147483647,0,0,1,1],"right_children":[2,4,-1,-1,-1],"split_conditions":[7.825632E1,4.136875E0,-9.408369E-2,1.0108464E-1,-2.1597727E-4],"split_indices":[57,7,0,0,0],"split_type":[0,0,0,0,0],"sum_hessian":[1.3118152E1,7.8320723E0,5.286079E0,5.672583E0,2.1594892E0],"tree_param":{"num_deleted":"0","num_feature":"68","num_nodes":"5","size_leaf_vector":"0"}},{"base_weights":[5.63215E-2,9.383227E-1,-7.139888E-1,-8.736599E-1,1.5893029E-1],"categories":[],"categories_nodes":[],"categories_segments":[],"categories_sizes":[],"default_left":[1,0,1,0,0],"id":19,"left_children":[1,-1,3,-1,-1],"loss_changes":[9.727335E0,0E0,1.2098513E0,0E0,0E0],"parents":[2147483647,0,0,2,2],"right_children":[2,-1,4,-1,-1],"split_conditions":[1.1255552E3,9.383228E-2,9.082618E-3,-8.736599E-2,1.5893029E-2],"split_indices":[62,0,14,0,0],"split_type":[0,0,0,0,0],"sum_hessian":[1.2331157E1,5.647122E0,6.684035E0,5.649754E0,1.0342809E0],"tree_param":{"num_deleted":"0","num_feature":"68","num_nodes":"5","size_leaf_vector":"0"}},{"base_weights":[5.590099E-2,9.482081E-1,-6.7353266E-1,1.7834954E-1,-8.429874E-1],"categories":[],"categories_nodes":[],"categories_segments":[],"categories_sizes":[],"default_left":[1,0,1,0,0],"id":20,"left_children":[1,-1,3,-1,-1],"loss_changes":[8.820624E0,0E0,1.2331939E0,0E0,0E0],"parents":[2147483647,0,0,2,2],"right_children":[2,-1,4,-1,-1],"split_conditions":[4.176671E-1,9.482081E-2,1.0030345E3,1.7834954E-2,-8.4298745E-2],"split_indices":[0,0,58,0,0],"split_type":[0,0,0,0,0],"sum_hessian":[1.1570657E1,5.0694E0,6.501257E0,1.0699446E0,5.4313126E0],"tree_param":{"num_deleted":"0","num_feature":"68","num_nodes":"5","size_leaf_vector":"0"}},{"base_weights":[5.597008E-2,7.139338E-1,-8.897601E-1,9.6570706E-1,-1.5919786E-2],"categories":[],"categories_nodes":[],"categories_segments":[],"categories_sizes":[],"default_left":[1,1,0,0,0],"id":21,"left_children":[1,3,-1,-1,-1],"loss_changes":[8.02236E0,1.40379E0,0E0,0E0,0E0],"parents":[2147483647,0,0,1,1],"right_children":[2,4,-1,-1,-1],"split_conditions":[7.825632E1,4.136875E0,-8.897601E-2,9.657071E-2,-1.5919786E-3],"split_indices":[57,7,0,0,0],"split_type":[0,0,0,0,0],"sum_hessian":[1.0871527E1,6.555694E0,4.315832E0,4.6339846E0,1.9217097E0],"tree_param":{"num_deleted":"0","num_feature":"68","num_nodes":"5","size_leaf_vector":"0"}},{"base_weights":[5.394051E-2,9.113372E-1,-6.367964E-1,4.204508E-2,-8.739099E-1],"categories":[],"categories_nodes":[],"categories_segments":[],"categories_sizes":[],"default_left":[1,0,1,0,0],"id":22,"left_children":[1,-1,3,-1,-1],"loss_changes":[7.234817E0,0E0,1.133151E0,0E0,0E0],"parents":[2147483647,0,0,2,2],"right_children":[2,-1,4,-1,-1],"split_conditions":[4.176671E-1,9.113372E-2,7.493843E0,4.204508E-3,-8.739099E-2],"split_indices":[0,0,32,0,0],"split_type":[0,0,0,0,0],"sum_hessian":[1.0236205E1,4.424634E0,5.8115716E0,1.7174102E0,4.0941615E0],"tree_param":{"num_deleted":"0","num_feature":"68","num_nodes":"5","size_leaf_vector":"0"}},{"base_weights":[5.2201517E-2,6.773892E-1,-8.5725486E-1,9.299146E-1,-1.775558E-2],"categories":[],"categories_nodes":[],"categories_segments":[],"categories_sizes":[],"default_left":[1,1,0,0,0],"id":23,"left_children":[1,3,-1,-1,-1],"loss_changes":[6.641338E0,1.2234399E0,0E0,0E0,0E0],"parents":[2147483647,0,0,1,1],"right_children":[2,4,-1,-1,-1],"split_conditions":[7.825632E1,4.136875E0,-8.572549E-2,9.2991464E-2,-1.775558E-3],"split_indices":[57,7,0,0,0],"split_type":[0,0,0,0,0],"sum_hessian":[9.659244E0,5.875452E0,3.7837915E0,4.0620885E0,1.8133633E0],"tree_param":{"num_deleted":"0","num_feature":"68","num_nodes":"5","size_leaf_vector":"0"}},{"base_weights":[5.0247997E-2,8.59181E-1,-6.25159E-1,-8.2905304E-1,3.6567334E-2],"categories":[],"categories_nodes":[],"categories_segments":[],"categories_sizes":[],"default_left":[1,0,1,0,0],"id":24,"left_children":[1,-1,3,-1,-1],"loss_changes":[6.0607405E0,0E0,8.517871E-1,0E0,0E0],"parents":[2147483647,0,0,2,2],"right_children":[2,-1,4,-1,-1],"split_conditions":[1.1255552E3,8.59181E-2,7.3661804E-2,-8.290531E-2,3.6567335E-3],"split_indices":[62,0,48,0,0],"split_type":[0,0,0,0,0],"sum_hessian":[9.109864E0,4.021378E0,5.088486E0,3.6966076E0,1.3918784E0],"tree_param":{"num_deleted":"0","num_feature":"68","num_nodes":"5","size_leaf_vector":"0"}},{"base_weights":[4.8672773E-2,8.6220723E-1,-5.91469E-1,-7.870915E-1,1.4571251E-1],"categories":[],"categories_nodes":[],"categories_segments":[],"categories_sizes":[],"default_left":[1,0,1,0,0],"id":25,"left_children":[1,-1,3,-1,-1],"loss_changes":[5.5033364E0,0E0,9.740479E-1,0E0,0E0],"parents":[2147483647,0,0,2,2],"right_children":[2,-1,4,-1,-1],"split_conditions":[4.176671E-1,8.622073E-2,1.3477208E2,-7.870915E-2,1.4571251E-2],"split_indices":[0,0,47,0,0],"split_type":[0,0,0,0,0],"sum_hessian":[8.588295E0,3.6291857E0,4.9591093E0,3.8656073E0,1.0935023E0],"tree_param":{"num_deleted":"0","num_feature":"68","num_nodes":"5","size_leaf_vector":"0"}},{"base_weights":[4.873967E-2,6.2575936E-1,-8.073711E-1,8.846082E-1,-4.0549174E-2],"categories":[],"categories_nodes":[],"categories_segments":[],"categories_sizes":[],"default_left":[1,1,0,0,0],"id":26,"left_children":[1,3,-1,-1,-1],"loss_changes":[5.012129E0,1.0730267E0,0E0,0E0,0E0],"parents":[2147483647,0,0,1,1],"right_children":[2,4,-1,-1,-1],"split_conditions":[7.825632E1,4.136875E0,-8.073711E-2,8.8460825E-2,-4.0549175E-3],"split_indices":[57,7,0,0,0],"split_type":[0,0,0,0,0],"sum_hessian":[8.123431E0,5.0134363E0,3.109995E0,3.3747725E0,1.6386636E0],"tree_param":{"num_deleted":"0","num_feature":"68","num_nodes":"5","size_leaf_vector":"0"}},{"base_weights":[4.6688695E-2,8.14141E-1,-5.772133E-1,-7.8051925E-1,4.0691007E-2],"categories":[],"categories_nodes":[],"categories_segments":[],"categories_sizes":[],"default_left":[1,0,1,0,0],"id":27,"left_children":[1,-1,3,-1,-1],"loss_changes":[4.6272397E0,0E0,7.0689785E-1,0E0,0E0],"parents":[2147483647,0,0,2,2],"right_children":[2,-1,4,-1,-1],"split_conditions":[1.1255552E3,8.1414096E-2,4.6415007E-1,-7.8051925E-2,4.0691006E-3],"split_indices":[62,0,9,0,0],"split_type":[0,0,0,0,0],"sum_hessian":[7.682491E0,3.308203E0,4.3742876E0,3.0933325E0,1.2809553E0],"tree_param":{"num_deleted":"0","num_feature":"68","num_nodes":"5","size_leaf_vector":"0"}},{"base_weights":[4.5302913E-2,8.1458163E-1,-5.4772115E-1,8.613854E-2,-7.876097E-1],"categories":[],"categories_nodes":[],"categories_segments":[],"categories_sizes":[],"default_left":[1,0,1,0,0],"id":28,"left_children":[1,-1,3,-1,-1],"loss_changes":[4.2161183E0,0E0,8.683305E-1,0E0,0E0],"parents":[2147483647,0,0,2,2],"right_children":[2,-1,4,-1,-1],"split_conditions":[4.176671E-1,8.1458166E-2,7.493843E0,8.613854E-3,-7.8760974E-2],"split_indices":[0,0,32,0,0],"split_type":[0,0,0,0,0],"sum_hessian":[7.263806E0,2.9993727E0,4.264433E0,1.3467709E0,2.917662E0],"tree_param":{"num_deleted":"0","num_feature":"68","num_nodes":"5","size_leaf_vector":"0"}},{"base_weights":[4.432722E-2,5.8158374E-1,-7.615153E-1,8.401958E-1,-5.2331254E-2],"categories":[],"categories_nodes":[],"categories_segments":[],"categories_sizes":[],"default_left":[1,1,0,0,0],"id":29,"left_children":[1,3,-1,-1,-1],"loss_changes":[3.8572562E0,9.1263115E-1,0E0,0E0,0E0],"parents":[2147483647,0,0,1,1],"right_children":[2,4,-1,-1,-1],"split_conditions":[7.825632E1,4.136875E0,-7.6151535E-2,8.401958E-2,-5.2331253E-3],"split_indices":[57,7,0,0,0],"split_type":[0,0,0,0,0],"sum_hessian":[6.8864007E0,4.298725E0,2.5876758E0,2.8220382E0,1.4766868E0],"tree_param":{"num_deleted":"0","num_feature":"68","num_nodes":"5","size_leaf_vector":"0"}},{"base_weights":[4.2286582E-2,7.694891E-1,-5.33689E-1,-7.344799E-1,4.410318E-2],"categories":[],"categories_nodes":[],"categories_segments":[],"categories_sizes":[],"default_left":[1,0,1,0,0],"id":30,"left_children":[1,-1,3,-1,-1],"loss_changes":[3.5653331E0,0E0,5.884936E-1,0E0,0E0],"parents":[2147483647,0,0,2,2],"right_children":[2,-1,4,-1,-1],"split_conditions":[1.1255552E3,7.694891E-2,7.3661804E-2,-7.3447995E-2,4.410318E-3],"split_indices":[62,0,48,0,0],"split_type":[0,0,0,0,0],"sum_hessian":[6.5317135E0,2.738378E0,3.7933357E0,2.6138148E0,1.1795207E0],"tree_param":{"num_deleted":"0","num_feature":"68","num_nodes":"5","size_leaf_vector":"0"}},{"base_weights":[4.114836E-2,7.6813215E-1,-5.0966763E-1,9.030374E-2,-7.443864E-1],"categories":[],"categories_nodes":[],"categories_segments":[],"categories_sizes":[],"default_left":[1,0,1,0,0],"id":31,"left_children":[1,-1,3,-1,-1],"loss_changes":[3.2727892E0,0E0,7.283727E-1,0E0,0E0],"parents":[2147483647,0,0,2,2],"right_children":[2,-1,4,-1,-1],"split_conditions":[4.176671E-1,7.681321E-2,7.493843E0,9.030375E-3,-7.443864E-2],"split_indices":[0,0,32,0,0],"split_type":[0,0,0,0,0],"sum_hessian":[6.1954308E0,2.5005689E0,3.694862E0,1.2120289E0,2.4828331E0],"tree_param":{"num_deleted":"0","num_feature":"68","num_nodes":"5","size_leaf_vector":"0"}},{"base_weights":[4.0458962E-2,5.409738E-1,-7.17035E-1,7.968668E-1,-6.133057E-2],"categories":[],"categories_nodes":[],"categories_segments":[],"categories_sizes":[],"default_left":[1,1,0,0,0],"id":32,"left_children":[1,3,-1,-1,-1],"loss_changes":[3.000337E0,7.761899E-1,0E0,0E0,0E0],"parents":[2147483647,0,0,1,1],"right_children":[2,4,-1,-1,-1],"split_conditions":[7.825632E1,4.136875E0,-7.17035E-2,7.968668E-2,-6.133057E-3],"split_indices":[57,7,0,0,0],"split_type":[0,0,0,0,0],"sum_hessian":[5.890491E0,3.7189975E0,2.1714935E0,2.383375E0,1.3356224E0],"tree_param":{"num_deleted":"0","num_feature":"68","num_nodes":"5","size_leaf_vector":"0"}},{"base_weights":[3.842635E-2,6.853889E-1,-5.2899367E-1,-1.776343E-2,-6.9991314E-1],"categories":[],"categories_nodes":[],"categories_segments":[],"categories_sizes":[],"default_left":[1,0,1,0,0],"id":33,"left_children":[1,-1,3,-1,-1],"loss_changes":[2.7869492E0,0E0,3.443153E-1,0E0,0E0],"parents":[2147483647,0,0,2,2],"right_children":[2,-1,4,-1,-1],"split_conditions":[7.1028946E1,6.85389E-2,7.825632E1,-1.7763431E-3,-6.999131E-2],"split_indices":[57,0,57,0,0],"split_type":[0,0,0,0,0],"sum_hessian":[5.6041565E0,2.5213978E0,3.0827587E0,1.0490166E0,2.033742E0],"tree_param":{"num_deleted":"0","num_feature":"68","num_nodes":"5","size_leaf_vector":"0"}},{"base_weights":[3.5548948E-2,7.21206E-1,-4.7491723E-1,9.590751E-2,-7.056891E-1],"categories":[],"categories_nodes":[],"categories_segments":[],"categories_sizes":[],"default_left":[1,0,1,0,0],"id":34,"left_children":[1,-1,3,-1,-1],"loss_changes":[2.5618205E0,0E0,6.2591475E-1,0E0,0E0],"parents":[2147483647,0,0,2,2],"right_children":[2,-1,4,-1,-1],"split_conditions":[4.176671E-1,7.21206E-2,7.493843E0,9.5907515E-3,-7.056891E-2],"split_indices":[0,0,32,0,0],"split_type":[0,0,0,0,0],"sum_hessian":[5.3407927E0,2.1030893E0,3.237703E0,1.1003479E0,2.1373553E0],"tree_param":{"num_deleted":"0","num_feature":"68","num_nodes":"5","size_leaf_vector":"0"}},{"base_weights":[3.521653E-2,6.969213E-1,-4.6960917E-1,-7.0330566E-1,8.422059E-2],"categories":[],"categories_nodes":[],"categories_segments":[],"categories_sizes":[],"default_left":[1,0,1,0,0],"id":35,"left_children":[1,-1,3,-1,-1],"loss_changes":[2.3626893E0,0E0,5.839021E-1,0E0,0E0],"parents":[2147483647,0,0,2,2],"right_children":[2,-1,4,-1,-1],"split_conditions":[1.00212427E3,6.969213E-2,7.3661804E-2,-7.033057E-2,8.422059E-3],"split_indices":[58,0,48,0,0],"split_type":[0,0,0,0,0],"sum_hessian":[5.093207E0,2.039455E0,3.0537522E0,1.9577544E0,1.0959977E0],"tree_param":{"num_deleted":"0","num_feature":"68","num_nodes":"5","size_leaf_vector":"0"}},{"base_weights":[3.4405213E-2,6.807382E-1,-4.5336872E-1,-6.5049237E-1,5.3441964E-2],"categories":[],"categories_nodes":[],"categories_segments":[],"categories_sizes":[],"default_left":[1,0,1,0,0],"id":36,"left_children":[1,-1,3,-1,-1],"loss_changes":[2.1521323E0,0E0,4.2766303E-1,0E0,0E0],"parents":[2147483647,0,0,2,2],"right_children":[2,-1,4,-1,-1],"split_conditions":[1.1255552E3,6.8073824E-2,4.6415007E-1,-6.504924E-2,5.3441967E-3],"split_indices":[62,0,9,0,0],"split_type":[0,0,0,0,0],"sum_hessian":[4.8474946E0,1.9147377E0,2.9327567E0,1.9073807E0,1.0253761E0],"tree_param":{"num_deleted":"0","num_feature":"68","num_nodes":"5","size_leaf_vector":"0"}},{"base_weights":[3.3780444E-2,6.7743266E-1,-4.3818375E-1,7.64018E-2,-6.849404E-1],"categories":[],"categories_nodes":[],"categories_segments":[],"categories_sizes":[],"default_left":[1,0,1,0,0],"id":37,"left_children":[1,-1,3,-1,-1],"loss_changes":[2.0069406E0,0E0,5.4184E-1,0E0,0E0],"parents":[2147483647,0,0,2,2],"right_children":[2,-1,4,-1,-1],"split_conditions":[4.176671E-1,6.7743264E-2,8.863443E0,7.64018E-3,-6.8494044E-2],"split_indices":[0,0,32,0,0],"split_type":[0,0,0,0,0],"sum_hessian":[4.62939E0,1.7742996E0,2.8550901E0,1.1491117E0,1.7059784E0],"tree_param":{"num_deleted":"0","num_feature":"68","num_nodes":"5","size_leaf_vector":"0"}},{"base_weights":[3.2837667E-2,4.679001E-1,-6.3263005E-1,7.213557E-1,-9.38659E-2],"categories":[],"categories_nodes":[],"categories_segments":[],"categories_sizes":[],"default_left":[1,1,0,0,0],"id":38,"left_children":[1,3,-1,-1,-1],"loss_changes":[1.8676623E0,6.169282E-1,0E0,0E0,0E0],"parents":[2147483647,0,0,1,1],"right_children":[2,4,-1,-1,-1],"split_conditions":[7.825632E1,4.136875E0,-6.326301E-2,7.213557E-2,-9.386591E-3],"split_indices":[57,7,0,0,0],"split_type":[0,0,0,0,0],"sum_hessian":[4.4284844E0,2.857333E0,1.5711515E0,1.7732146E0,1.0841184E0],"tree_param":{"num_deleted":"0","num_feature":"68","num_nodes":"5","size_leaf_vector":"0"}},{"base_weights":[3.0690761E-2,6.474042E-1,-4.17295E-1,7.285479E-2,-6.568663E-1],"categories":[],"categories_nodes":[],"categories_segments":[],"categories_sizes":[],"default_left":[1,0,1,0,0],"id":39,"left_children":[1,-1,3,-1,-1],"loss_changes":[1.7170523E0,0E0,4.7547054E-1,0E0,0E0],"parents":[2147483647,0,0,2,2],"right_children":[2,-1,4,-1,-1],"split_conditions":[4.176671E-1,6.474042E-2,8.863443E0,7.285479E-3,-6.5686636E-2],"split_indices":[0,0,32,0,0],"split_type":[0,0,0,0,0],"sum_hessian":[4.237077E0,1.595504E0,2.6415732E0,1.0957085E0,1.5458647E0],"tree_param":{"num_deleted":"0","num_feature":"68","num_nodes":"5","size_leaf_vector":"0"}},{"base_weights":[2.9860806E-2,4.4688338E-1,-6.071825E-1,6.9082385E-1,-8.8660866E-2],"categories":[],"categories_nodes":[],"categories_segments":[],"categories_sizes":[],"default_left":[1,1,0,0,0],"id":40,"left_children":[1,3,-1,-1,-1],"loss_changes":[1.6160516E0,5.3615445E-1,0E0,0E0,0E0],"parents":[2147483647,0,0,1,1],"right_children":[2,4,-1,-1,-1],"split_conditions":[7.825632E1,8.941576E0,-6.071825E-2,6.908239E-2,-8.866087E-3],"split_indices":[57,32,0,0,0],"split_type":[0,0,0,0,0],"sum_hessian":[4.0617504E0,2.6351967E0,1.4265538E0,1.6113014E0,1.0238953E0],"tree_param":{"num_deleted":"0","num_feature":"68","num_nodes":"5","size_leaf_vector":"0"}},{"base_weights":[2.7839847E-2,6.1383116E-1,-4.0534848E-1,-6.114984E-1,1.6176509E-2],"categories":[],"categories_nodes":[],"categories_segments":[],"categories_sizes":[],"default_left":[1,0,1,0,0],"id":41,"left_children":[1,-1,3,-1,-1],"loss_changes":[1.4909446E0,0E0,3.0670977E-1,0E0,0E0],"parents":[2147483647,0,0,2,2],"right_children":[2,-1,4,-1,-1],"split_conditions":[1.1255552E3,6.1383117E-2,8.000001E-1,-6.1149843E-2,1.6176509E-3],"split_indices":[62,0,30,0,0],"split_type":[0,0,0,0,0],"sum_hessian":[3.8932652E0,1.4775356E0,2.4157295E0,1.3196591E0,1.0960705E0],"tree_param":{"num_deleted":"0","num_feature":"68","num_nodes":"5","size_leaf_vector":"0"}},{"base_weights":[2.634472E-2,4.253996E-1,-5.823992E-1,6.6205895E-1,-7.5727366E-2],"categories":[],"categories_nodes":[],"categories_segments":[],"categories_sizes":[],"default_left":[1,1,0,0,0],"id":42,"left_children":[1,3,-1,-1,-1],"loss_changes":[1.3996397E0,4.583559E-1,0E0,0E0,0E0],"parents":[2147483647,0,0,1,1],"right_children":[2,4,-1,-1,-1],"split_conditions":[7.825632E1,4.123625E0,-5.823992E-2,6.62059E-2,-7.5727366E-3],"split_indices":[57,7,0,0,0],"split_type":[0,0,0,0,0],"sum_hessian":[3.7417946E0,2.4420936E0,1.299701E0,1.4406163E0,1.0014774E0],"tree_param":{"num_deleted":"0","num_feature":"68","num_nodes":"5","size_leaf_vector":"0"}},{"base_weights":[2.4656445E-2,5.960064E-1,-3.8862026E-1,1.5636202E-2,-5.838157E-1],"categories":[],"categories_nodes":[],"categories_segments":[],"categories_sizes":[],"default_left":[1,0,1,0,0],"id":43,"left_children":[1,-1,3,-1,-1],"loss_changes":[1.3169076E0,0E0,2.6734817E-1,0E0,0E0],"parents":[2147483647,0,0,2,2],"right_children":[2,-1,4,-1,-1],"split_conditions":[4.176671E-1,5.960064E-2,5.904821E-1,1.5636202E-3,-5.838157E-2],"split_indices":[0,0,56,0,0],"split_type":[0,0,0,0,0],"sum_hessian":[3.5962296E0,1.3238603E0,2.2723691E0,1.0394752E0,1.2328941E0],"tree_param":{"num_deleted":"0","num_feature":"68","num_nodes":"5","size_leaf_vector":"0"}},{"base_weights":[2.3536341E-2,5.762598E-1,-3.8009036E-1,-5.748997E-1,1.659105E-2],"categories":[],"categories_nodes":[],"categories_segments":[],"categories_sizes":[],"default_left":[1,0,1,0,0],"id":44,"left_children":[1,-1,3,-1,-1],"loss_changes":[1.2146428E0,0E0,2.5541973E-1,0E0,0E0],"parents":[2147483647,0,0,2,2],"right_children":[2,-1,4,-1,-1],"split_conditions":[1.1255552E3,5.762598E-2,8.000001E-1,-5.748997E-2,1.659105E-3],"split_indices":[62,0,30,0,0],"split_type":[0,0,0,0,0],"sum_hessian":[3.4627478E0,1.2809371E0,2.1818109E0,1.1619209E0,1.01989E0],"tree_param":{"num_deleted":"0","num_feature":"68","num_nodes":"5","size_leaf_vector":"0"}},{"base_weights":[2.2282228E-2,3.9579165E-1,-5.469052E-1,6.136082E-1,-4.1182064E-2],"categories":[],"categories_nodes":[],"categories_segments":[],"categories_sizes":[],"default_left":[1,1,0,0,0],"id":45,"left_children":[1,3,-1,-1,-1],"loss_changes":[1.1385931E0,3.2975596E-1,0E0,0E0,0E0],"parents":[2147483647,0,0,1,1],"right_children":[2,4,-1,-1,-1],"split_conditions":[7.825632E1,4.047531E0,-5.469052E-2,6.1360817E-2,-4.1182064E-3],"split_indices":[57,7,0,0,0],"split_type":[0,0,0,0,0],"sum_hessian":[3.3374696E0,2.1990542E0,1.1384153E0,1.1977797E0,1.0012747E0],"tree_param":{"num_deleted":"0","num_feature":"68","num_nodes":"5","size_leaf_vector":"0"}},{"base_weights":[2.1259785E-2,5.5947536E-1,-3.6535695E-1,6.9225403E-3,-5.4938436E-1],"categories":[],"categories_nodes":[],"categories_segments":[],"categories_sizes":[],"default_left":[1,0,1,0,0],"id":46,"left_children":[1,-1,3,-1,-1],"loss_changes":[1.0828953E0,0E0,2.1357083E-1,0E0,0E0],"parents":[2147483647,0,0,2,2],"right_children":[2,-1,4,-1,-1],"split_conditions":[4.176671E-1,5.594754E-2,9.489159E0,6.9225405E-4,-5.4938436E-2],"split_indices":[0,0,32,0,0],"split_type":[0,0,0,0,0],"sum_hessian":[3.221808E0,1.159936E0,2.061872E0,1.0004295E0,1.0614426E0],"tree_param":{"num_deleted":"0","num_feature":"68","num_nodes":"5","size_leaf_vector":"0"}},{"base_weights":[2.011589E-2,5.4182863E-1,-3.5757607E-1],"categories":[],"categories_nodes":[],"categories_segments":[],"categories_sizes":[],"default_left":[1,0,0],"id":47,"left_children":[1,-1,-1],"loss_changes":[1.0042121E0,0E0,0E0],"parents":[2147483647,0,0],"right_children":[2,-1,-1],"split_conditions":[1.1255552E3,5.4182865E-2,-3.575761E-2],"split_indices":[62,0,0],"split_type":[0,0,0],"sum_hessian":[3.113072E0,1.1247946E0,1.9882773E0],"tree_param":{"num_deleted":"0","num_feature":"68","num_nodes":"3","size_leaf_vector":"0"}},{"base_weights":[2.3333037E-2,3.7656945E-1,-5.15636E-1,4.1775316E-2,5.23043E-1],"categories":[],"categories_nodes":[],"categories_segments":[],"categories_sizes":[],"default_left":[1,1,0,0,0],"id":48,"left_children":[1,3,-1,-1,-1],"loss_changes":[9.590252E-1,1.2550095E-1,0E0,0E0,0E0],"parents":[2147483647,0,0,1,1],"right_children":[2,4,-1,-1,-1],"split_conditions":[7.825632E1,1.5562087E-1,-5.1563602E-2,4.1775317E-3,5.2304298E-2],"split_indices":[57,48,0,0,0],"split_type":[0,0,0,0,0],"sum_hessian":[3.01743E0,2.0048084E0,1.0126216E0,1.0013143E0,1.0034941E0],"tree_param":{"num_deleted":"0","num_feature":"68","num_nodes":"5","size_leaf_vector":"0"}},{"base_weights":[2.2762014E-2,5.251355E-1,-3.3524236E-1],"categories":[],"categories_nodes":[],"categories_segments":[],"categories_sizes":[],"default_left":[1,0,0],"id":49,"left_children":[1,-1,-1],"loss_changes":[8.8137096E-1,0E0,0E0],"parents":[2147483647,0,0],"right_children":[2,-1,-1],"split_conditions":[4.176671E-1,5.251355E-2,-3.3524238E-2],"split_indices":[0,0,0],"split_type":[0,0,0],"sum_hessian":[2.9216893E0,1.0214657E0,1.9002235E0],"tree_param":{"num_deleted":"0","num_feature":"68","num_nodes":"3","size_leaf_vector":"0"}},{"base_weights":[2.6055986E-2,4.9724895E-1,-3.1888318E-1],"categories":[],"categories_nodes":[],"categories_segments":[],"categories_sizes":[],"default_left":[1,0,0],"id":50,"left_children":[1,-1,-1],"loss_changes":[7.8276193E-1,0E0,0E0],"parents":[2147483647,0,0],"right_children":[2,-1,-1],"split_conditions":[1.00242847E3,4.9724896E-2,-3.1888317E-2],"split_indices":[58,0,0],"split_type":[0,0,0],"sum_hessian":[2.8404384E0,1.0138906E0,1.8265477E0],"tree_param":{"num_deleted":"0","num_feature":"68","num_nodes":"3","size_leaf_vector":"0"}},{"base_weights":[2.883821E-2,4.579771E-1,-3.2720432E-1],"categories":[],"categories_nodes":[],"categories_segments":[],"categories_sizes":[],"default_left":[1,0,0],"id":51,"left_children":[1,-1,-1],"loss_changes":[7.2493994E-1,0E0,0E0],"parents":[2147483647,0,0],"right_children":[2,-1,-1],"split_conditions":[7.1028946E1,4.579771E-2,-3.272043E-2],"split_indices":[57,0,0],"split_type":[0,0,0],"sum_hessian":[2.7638686E0,1.1234604E0,1.6404083E0],"tree_param":{"num_deleted":"0","num_feature":"68","num_nodes":"3","size_leaf_vector":"0"}},{"base_weights":[3.0107917E-2,-3.8674417E-1,3.8916647E-1],"categories":[],"categories_nodes":[],"categories_segments":[],"categories_sizes":[],"default_left":[1,0,0],"id":52,"left_children":[1,-1,-1],"loss_changes":[7.0325005E-1,0E0,0E0],"parents":[2147483647,0,0],"right_children":[2,-1,-1],"split_conditions":[7.3661804E-2,-3.8674418E-2,3.8916647E-2],"split_indices":[48,0,0],"split_type":[0,0,0],"sum_hessian":[2.6929667E0,1.2105094E0,1.4824573E0],"tree_param":{"num_deleted":"0","num_feature":"68","num_nodes":"3","size_leaf_vector":"0"}},{"base_weights":[2.7558811E-2,-3.1109092E-1,4.4294423E-1],"categories":[],"categories_nodes":[],"categories_segments":[],"categories_sizes":[],"default_left":[1,0,0],"id":53,"left_children":[1,-1,-1],"loss_changes":[6.4960384E-1,0E0,0E0],"parents":[2147483647,0,0],"right_children":[2,-1,-1],"split_conditions":[9.891789E-3,-3.1109093E-2,4.4294424E-2],"split_indices":[14,0,0],"split_type":[0,0,0],"sum_hessian":[2.6383543E0,1.5917406E0,1.0466137E0],"tree_param":{"num_deleted":"0","num_feature":"68","num_nodes":"3","size_leaf_vector":"0"}},{"base_weights":[2.8883994E-2,4.3599042E-1,-3.0844206E-1],"categories":[],"categories_nodes":[],"categories_segments":[],"categories_sizes":[],"default_left":[1,0,0],"id":54,"left_children":[1,-1,-1],"loss_changes":[6.2754416E-1,0E0,0E0],"parents":[2147483647,0,0],"right_children":[2,-1,-1],"split_conditions":[7.1028946E1,4.3599043E-2,-3.0844206E-2],"split_indices":[57,0,0],"split_type":[0,0,0],"sum_hessian":[2.5904388E0,1.041274E0,1.5491649E0],"tree_param":{"num_deleted":"0","num_feature":"68","num_nodes":"3","size_leaf_vector":"0"}},{"base_weights":[3.0167518E-2,-3.636265E-1,3.6782712E-1],"categories":[],"categories_nodes":[],"categories_segments":[],"categories_sizes":[],"default_left":[1,0,0],"id":55,"left_children":[1,-1,-1],"loss_changes":[6.029413E-1,0E0,0E0],"parents":[2147483647,0,0],"right_children":[2,-1,-1],"split_conditions":[7.3661804E-2,-3.636265E-2,3.678271E-2],"split_indices":[48,0,0],"split_type":[0,0,0],"sum_hessian":[2.5285811E0,1.1317639E0,1.3968172E0],"tree_param":{"num_deleted":"0","num_feature":"68","num_nodes":"3","size_leaf_vector":"0"}},{"base_weights":[2.7628636E-2,-3.097523E-1,4.054935E-1],"categories":[],"categories_nodes":[],"categories_segments":[],"categories_sizes":[],"default_left":[1,0,0],"id":56,"left_children":[1,-1,-1],"loss_changes":[5.694515E-1,0E0,0E0],"parents":[2147483647,0,0],"right_children":[2,-1,-1],"split_conditions":[7.3081283E-3,-3.0975228E-2,4.054935E-2],"split_indices":[14,0,0],"split_type":[0,0,0],"sum_hessian":[2.4815946E0,1.4062579E0,1.0753367E0],"tree_param":{"num_deleted":"0","num_feature":"68","num_nodes":"3","size_leaf_vector":"0"}},{"base_weights":[2.8003257E-2,-3.467276E-1,3.4832E-1],"categories":[],"categories_nodes":[],"categories_segments":[],"categories_sizes":[],"default_left":[1,0,0],"id":57,"left_children":[1,-1,-1],"loss_changes":[5.336269E-1,0E0,0E0],"parents":[2147483647,0,0],"right_children":[2,-1,-1],"split_conditions":[7.3661804E-2,-3.4672763E-2,3.4832E-2],"split_indices":[48,0,0],"split_type":[0,0,0],"sum_hessian":[2.439523E0,1.0862697E0,1.3532532E0],"tree_param":{"num_deleted":"0","num_feature":"68","num_nodes":"3","size_leaf_vector":"0"}},{"base_weights":[2.5553212E-2,3.7816104E-1,-3.0381286E-1],"categories":[],"categories_nodes":[],"categories_segments":[],"categories_sizes":[],"default_left":[1,0,0],"id":58,"left_children":[1,-1,-1],"loss_changes":[5.0945705E-1,0E0,0E0],"parents":[2147483647,0,0],"right_children":[2,-1,-1],"split_conditions":[1.4208641E1,3.7816104E-2,-3.0381287E-2],"split_indices":[39,0,0],"split_type":[0,0,0],"sum_hessian":[2.3974245E0,1.0863103E0,1.3111142E0],"tree_param":{"num_deleted":"0","num_feature":"68","num_nodes":"3","size_leaf_vector":"0"}},{"base_weights":[2.552722E-2,-2.89507E-1,3.7969026E-1],"categories":[],"categories_nodes":[],"categories_segments":[],"categories_sizes":[],"default_left":[1,0,0],"id":59,"left_children":[1,-1,-1],"loss_changes":[4.8447308E-1,0E0,0E0],"parents":[2147483647,0,0],"right_children":[2,-1,-1],"split_conditions":[7.3081283E-3,-2.89507E-2,3.7969027E-2],"split_indices":[14,0,0],"split_type":[0,0,0],"sum_hessian":[2.3569815E0,1.3440161E0,1.0129656E0],"tree_param":{"num_deleted":"0","num_feature":"68","num_nodes":"3","size_leaf_vector":"0"}},{"base_weights":[2.598428E-2,-3.252598E-1,3.2435817E-1],"categories":[],"categories_nodes":[],"categories_segments":[],"categories_sizes":[],"default_left":[1,0,0],"id":60,"left_children":[1,-1,-1],"loss_changes":[4.535163E-1,0E0,0E0],"parents":[2147483647,0,0],"right_children":[2,-1,-1],"split_conditions":[7.3661804E-2,-3.2525983E-2,3.2435816E-2],"split_indices":[48,0,0],"split_type":[0,0,0],"sum_hessian":[2.3206942E0,1.0245231E0,1.2961712E0],"tree_param":{"num_deleted":"0","num_feature":"68","num_nodes":"3","size_leaf_vector":"0"}},{"base_weights":[2.3610128E-2,-2.762379E-1,3.537705E-1],"categories":[],"categories_nodes":[],"categories_segments":[],"categories_sizes":[],"default_left":[1,0,0],"id":61,"left_children":[1,-1,-1],"loss_changes":[4.2286968E-1,0E0,0E0],"parents":[2147483647,0,0],"right_children":[2,-1,-1],"split_conditions":[6.8610613E-3,-2.7623791E-2,3.537705E-2],"split_indices":[14,0,0],"split_type":[0,0,0],"sum_hessian":[2.28436E0,1.2827251E0,1.0016348E0],"tree_param":{"num_deleted":"0","num_feature":"68","num_nodes":"3","size_leaf_vector":"0"}},{"base_weights":[2.3874665E-2,3.4412837E-1,-2.744154E-1],"categories":[],"categories_nodes":[],"categories_segments":[],"categories_sizes":[],"default_left":[1,0,0],"id":62,"left_children":[1,-1,-1],"loss_changes":[4.051362E-1,0E0,0E0],"parents":[2147483647,0,0],"right_children":[2,-1,-1],"split_conditions":[1.4208641E1,3.441284E-2,-2.744154E-2],"split_indices":[39,0,0],"split_type":[0,0,0],"sum_hessian":[2.252454E0,1.0121294E0,1.2403247E0],"tree_param":{"num_deleted":"0","num_feature":"68","num_nodes":"3","size_leaf_vector":"0"}},{"base_weights":[2.3903629E-2,3.120794E-1,-2.9071197E-1],"categories":[],"categories_nodes":[],"categories_segments":[],"categories_sizes":[],"default_left":[1,0,0],"id":63,"left_children":[1,-1,-1],"loss_changes":[3.826168E-1,0E0,0E0],"parents":[2147483647,0,0],"right_children":[2,-1,-1],"split_conditions":[8.941576E0,3.120794E-2,-2.9071197E-2],"split_indices":[32,0,0],"split_type":[0,0,0],"sum_hessian":[2.2194653E0,1.1626155E0,1.0568498E0],"tree_param":{"num_deleted":"0","num_feature":"68","num_nodes":"3","size_leaf_vector":"0"}},{"base_weights":[2.237276E-2,2.9730046E-1,-2.777323E-1],"categories":[],"categories_nodes":[],"categories_segments":[],"categories_sizes":[],"default_left":[1,0,0],"id":64,"left_children":[1,-1,-1],"loss_changes":[3.4592333E-1,0E0,0E0],"parents":[2147483647,0,0],"right_children":[2,-1,-1],"split_conditions":[8.941576E0,2.9730046E-2,-2.7773231E-2],"split_indices":[32,0,0],"split_type":[0,0,0],"sum_hessian":[2.1918833E0,1.148804E0,1.0430795E0],"tree_param":{"num_deleted":"0","num_feature":"68","num_nodes":"3","size_leaf_vector":"0"}},{"base_weights":[2.0917188E-2,2.8313807E-1,-2.65268E-1],"categories":[],"categories_nodes":[],"categories_segments":[],"categories_sizes":[],"default_left":[1,0,0],"id":65,"left_children":[1,-1,-1],"loss_changes":[3.1276065E-1,0E0,0E0],"parents":[2147483647,0,0],"right_children":[2,-1,-1],"split_conditions":[8.941576E0,2.8313806E-2,-2.65268E-2],"split_indices":[32,0,0],"split_type":[0,0,0],"sum_hessian":[2.1668625E0,1.1363316E0,1.030531E0],"tree_param":{"num_deleted":"0","num_feature":"68","num_nodes":"3","size_leaf_vector":"0"}},{"base_weights":[1.953227E-2,2.793682E-1,-2.540983E-1],"categories":[],"categories_nodes":[],"categories_segments":[],"categories_sizes":[],"default_left":[1,0,0],"id":66,"left_children":[1,-1,-1],"loss_changes":[2.9453376E-1,0E0,0E0],"parents":[2147483647,0,0],"right_children":[2,-1,-1],"split_conditions":[6.679635E1,2.793682E-2,-2.540983E-2],"split_indices":[49,0,0],"split_type":[0,0,0],"sum_hessian":[2.1441596E0,1.0890468E0,1.0551128E0],"tree_param":{"num_deleted":"0","num_feature":"68","num_nodes":"3","size_leaf_vector":"0"}},{"base_weights":[1.851673E-2,2.7059096E-1,-2.558895E-1],"categories":[],"categories_nodes":[],"categories_segments":[],"categories_sizes":[],"default_left":[1,0,0],"id":67,"left_children":[1,-1,-1],"loss_changes":[2.852073E-1,0E0,0E0],"parents":[2147483647,0,0],"right_children":[2,-1,-1],"split_conditions":[8.941576E0,2.7059097E-2,-2.558895E-2],"split_indices":[32,0,0],"split_type":[0,0,0],"sum_hessian":[2.1222148E0,1.1133636E0,1.0088512E0],"tree_param":{"num_deleted":"0","num_feature":"68","num_nodes":"3","size_leaf_vector":"0"}},{"base_weights":[1.7253412E-2,2.672055E-1,-2.4519439E-1],"categories":[],"categories_nodes":[],"categories_segments":[],"categories_sizes":[],"default_left":[1,0,0],"id":68,"left_children":[1,-1,-1],"loss_changes":[2.6896077E-1,0E0,0E0],"parents":[2147483647,0,0],"right_children":[2,-1,-1],"split_conditions":[6.679635E1,2.6720552E-2,-2.451944E-2],"split_indices":[49,0,0],"split_type":[0,0,0],"sum_hessian":[2.101302E0,1.0669876E0,1.0343143E0],"tree_param":{"num_deleted":"0","num_feature":"68","num_nodes":"3","size_leaf_vector":"0"}},{"base_weights":[1.6348496E-2,-2.3294887E-1,2.562111E-1],"categories":[],"categories_nodes":[],"categories_segments":[],"categories_sizes":[],"default_left":[1,0,0],"id":69,"left_children":[1,-1,-1],"loss_changes":[2.4392132E-1,0E0,0E0],"parents":[2147483647,0,0],"right_children":[2,-1,-1],"split_conditions":[2.6366556E0,-2.3294887E-2,2.562111E-2],"split_indices":[1,0,0],"split_type":[0,0,0],"sum_hessian":[2.081039E0,1.0345842E0,1.0464548E0],"tree_param":{"num_deleted":"0","num_feature":"68","num_nodes":"3","size_leaf_vector":"0"}},{"base_weights":[1.5603082E-2,2.512093E-1,-2.3164235E-1],"categories":[],"categories_nodes":[],"categories_segments":[],"categories_sizes":[],"default_left":[1,0,0],"id":70,"left_children":[1,-1,-1],"loss_changes":[2.3619878E-1,0E0,0E0],"parents":[2147483647,0,0],"right_children":[2,-1,-1],"split_conditions":[6.679635E1,2.5120929E-2,-2.3164235E-2],"split_indices":[49,0,0],"split_type":[0,0,0],"sum_hessian":[2.055799E0,1.0444679E0,1.011331E0],"tree_param":{"num_deleted":"0","num_feature":"68","num_nodes":"3","size_leaf_vector":"0"}},{"base_weights":[1.4771806E-2,2.5160548E-1,-2.3088811E-1],"categories":[],"categories_nodes":[],"categories_segments":[],"categories_sizes":[],"default_left":[1,0,0],"id":71,"left_children":[1,-1,-1],"loss_changes":[2.3484297E-1,0E0,0E0],"parents":[2147483647,0,0],"right_children":[2,-1,-1],"split_conditions":[8.491932E0,2.516055E-2,-2.3088811E-2],"split_indices":[32,0,0],"split_type":[0,0,0],"sum_hessian":[2.037962E0,1.0252986E0,1.0126634E0],"tree_param":{"num_deleted":"0","num_feature":"68","num_nodes":"3","size_leaf_vector":"0"}},{"base_weights":[1.4058823E-2,2.4752812E-1,-2.2461212E-1],"categories":[],"categories_nodes":[],"categories_segments":[],"categories_sizes":[],"default_left":[1,0,0],"id":72,"left_children":[1,-1,-1],"loss_changes":[2.2392392E-1,0E0,0E0],"parents":[2147483647,0,0],"right_children":[2,-1,-1],"split_conditions":[1.00436346E3,2.4752812E-2,-2.2461211E-2],"split_indices":[58,0,0],"split_type":[0,0,0],"sum_hessian":[2.0208015E0,1.0027728E0,1.0180286E0],"tree_param":{"num_deleted":"0","num_feature":"68","num_nodes":"3","size_leaf_vector":"0"}},{"base_weights":[1.35242175E-2],"categories":[],"categories_nodes":[],"categories_segments":[],"categories_sizes":[],"default_left":[0],"id":73,"left_children":[-1],"loss_changes":[0E0],"parents":[2147483647],"right_children":[-1],"split_conditions":[1.3524218E-3],"split_indices":[0],"split_type":[0],"sum_hessian":[1.996935E0],"tree_param":{"num_deleted":"0","num_feature":"68","num_nodes":"1","size_leaf_vector":"0"}},{"base_weights":[1.2623031E-2],"categories":[],"categories_nodes":[],"categories_segments":[],"categories_sizes":[],"default_left":[0],"id":74,"left_children":[-1],"loss_changes":[0E0],"parents":[2147483647],"right_children":[-1],"split_conditions":[1.2623031E-3],"split_indices":[0],"split_type":[0],"sum_hessian":[1.9969872E0],"tree_param":{"num_deleted":"0","num_feature":"68","num_nodes":"1","size_leaf_vector":"0"}},{"base_weights":[1.1781858E-2],"categories":[],"categories_nodes":[],"categories_segments":[],"categories_sizes":[],"default_left":[0],"id":75,"left_children":[-1],"loss_changes":[0E0],"parents":[2147483647],"right_children":[-1],"split_conditions":[1.1781858E-3],"split_indices":[0],"split_type":[0],"sum_hessian":[1.9970381E0],"tree_param":{"num_deleted":"0","num_feature":"68","num_nodes":"1","size_leaf_vector":"0"}},{"base_weights":[1.0996444E-2],"categories":[],"categories_nodes":[],"categories_segments":[],"categories_sizes":[],"default_left":[0],"id":76,"left_children":[-1],"loss_changes":[0E0],"parents":[2147483647],"right_children":[-1],"split_conditions":[1.0996445E-3],"split_indices":[0],"split_type":[0],"sum_hessian":[1.9970871E0],"tree_param":{"num_deleted":"0","num_feature":"68","num_nodes":"1","size_leaf_vector":"0"}},{"base_weights":[1.0263794E-2],"categories":[],"categories_nodes":[],"categories_segments":[],"categories_sizes":[],"default_left":[0],"id":77,"left_children":[-1],"loss_changes":[0E0],"parents":[2147483647],"right_children":[-1],"split_conditions":[1.0263794E-3],"split_indices":[0],"split_type":[0],"sum_hessian":[1.9971356E0],"tree_param":{"num_deleted":"0","num_feature":"68","num_nodes":"1","size_leaf_vector":"0"}},{"base_weights":[9.579802E-3],"categories":[],"categories_nodes":[],"categories_segments":[],"categories_sizes":[],"default_left":[0],"id":78,"left_children":[-1],"loss_changes":[0E0],"parents":[2147483647],"right_children":[-1],"split_conditions":[9.579802E-4],"split_indices":[0],"split_type":[0],"sum_hessian":[1.9971819E0],"tree_param":{"num_deleted":"0","num_feature":"68","num_nodes":"1","size_leaf_vector":"0"}},{"base_weights":[8.941545E-3],"categories":[],"categories_nodes":[],"categories_segments":[],"categories_sizes":[],"default_left":[0],"id":79,"left_children":[-1],"loss_changes":[0E0],"parents":[2147483647],"right_children":[-1],"split_conditions":[8.9415454E-4],"split_indices":[0],"split_type":[0],"sum_hessian":[1.997227E0],"tree_param":{"num_deleted":"0","num_feature":"68","num_nodes":"1","size_leaf_vector":"0"}},{"base_weights":[8.345486E-3],"categories":[],"categories_nodes":[],"categories_segments":[],"categories_sizes":[],"default_left":[0],"id":80,"left_children":[-1],"loss_changes":[0E0],"parents":[2147483647],"right_children":[-1],"split_conditions":[8.3454855E-4],"split_indices":[0],"split_type":[0],"sum_hessian":[1.9972693E0],"tree_param":{"num_deleted":"0","num_feature":"68","num_nodes":"1","size_leaf_vector":"0"}},{"base_weights":[7.788923E-3],"categories":[],"categories_nodes":[],"categories_segments":[],"categories_sizes":[],"default_left":[0],"id":81,"left_children":[-1],"loss_changes":[0E0],"parents":[2147483647],"right_children":[-1],"split_conditions":[7.788923E-4],"split_indices":[0],"split_type":[0],"sum_hessian":[1.997309E0],"tree_param":{"num_deleted":"0","num_feature":"68","num_nodes":"1","size_leaf_vector":"0"}},{"base_weights":[7.2699804E-3],"categories":[],"categories_nodes":[],"categories_segments":[],"categories_sizes":[],"default_left":[0],"id":82,"left_children":[-1],"loss_changes":[0E0],"parents":[2147483647],"right_children":[-1],"split_conditions":[7.26998E-4],"split_indices":[0],"split_type":[0],"sum_hessian":[1.9973484E0],"tree_param":{"num_deleted":"0","num_feature":"68","num_nodes":"1","size_leaf_vector":"0"}},{"base_weights":[6.7853597E-3],"categories":[],"categories_nodes":[],"categories_segments":[],"categories_sizes":[],"default_left":[0],"id":83,"left_children":[-1],"loss_changes":[0E0],"parents":[2147483647],"right_children":[-1],"split_conditions":[6.7853596E-4],"split_indices":[0],"split_type":[0],"sum_hessian":[1.9973855E0],"tree_param":{"num_deleted":"0","num_feature":"68","num_nodes":"1","size_leaf_vector":"0"}},{"base_weights":[6.3330596E-3],"categories":[],"categories_nodes":[],"categories_segments":[],"categories_sizes":[],"default_left":[0],"id":84,"left_children":[-1],"loss_changes":[0E0],"parents":[2147483647],"right_children":[-1],"split_conditions":[6.33306E-4],"split_indices":[0],"split_type":[0],"sum_hessian":[1.9974207E0],"tree_param":{"num_deleted":"0","num_feature":"68","num_nodes":"1","size_leaf_vector":"0"}},{"base_weights":[5.9110927E-3],"categories":[],"categories_nodes":[],"categories_segments":[],"categories_sizes":[],"default_left":[0],"id":85,"left_children":[-1],"loss_changes":[0E0],"parents":[2147483647],"right_children":[-1],"split_conditions":[5.911093E-4],"split_indices":[0],"split_type":[0],"sum_hessian":[1.9974545E0],"tree_param":{"num_deleted":"0","num_feature":"68","num_nodes":"1","size_leaf_vector":"0"}},{"base_weights":[5.517149E-3],"categories":[],"categories_nodes":[],"categories_segments":[],"categories_sizes":[],"default_left":[0],"id":86,"left_children":[-1],"loss_changes":[0E0],"parents":[2147483647],"right_children":[-1],"split_conditions":[5.517149E-4],"split_indices":[0],"split_type":[0],"sum_hessian":[1.9974867E0],"tree_param":{"num_deleted":"0","num_feature":"68","num_nodes":"1","size_leaf_vector":"0"}},{"base_weights":[5.1498297E-3],"categories":[],"categories_nodes":[],"categories_segments":[],"categories_sizes":[],"default_left":[0],"id":87,"left_children":[-1],"loss_changes":[0E0],"parents":[2147483647],"right_children":[-1],"split_conditions":[5.1498297E-4],"split_indices":[0],"split_type":[0],"sum_hessian":[1.9975181E0],"tree_param":{"num_deleted":"0","num_feature":"68","num_nodes":"1","size_leaf_vector":"0"}},{"base_weights":[4.805712E-3],"categories":[],"categories_nodes":[],"categories_segments":[],"categories_sizes":[],"default_left":[0],"id":88,"left_children":[-1],"loss_changes":[0E0],"parents":[2147483647],"right_children":[-1],"split_conditions":[4.805712E-4],"split_indices":[0],"split_type":[0],"sum_hessian":[1.997544E0],"tree_param":{"num_deleted":"0","num_feature":"68","num_nodes":"1","size_leaf_vector":"0"}},{"base_weights":[4.4856705E-3],"categories":[],"categories_nodes":[],"categories_segments":[],"categories_sizes":[],"default_left":[0],"id":89,"left_children":[-1],"loss_changes":[0E0],"parents":[2147483647],"right_children":[-1],"split_conditions":[4.4856707E-4],"split_indices":[0],"split_type":[0],"sum_hessian":[1.997572E0],"tree_param":{"num_deleted":"0","num_feature":"68","num_nodes":"1","size_leaf_vector":"0"}},{"base_weights":[4.186938E-3],"categories":[],"categories_nodes":[],"categories_segments":[],"categories_sizes":[],"default_left":[0],"id":90,"left_children":[-1],"loss_changes":[0E0],"parents":[2147483647],"right_children":[-1],"split_conditions":[4.1869382E-4],"split_indices":[0],"split_type":[0],"sum_hessian":[1.9975982E0],"tree_param":{"num_deleted":"0","num_feature":"68","num_nodes":"1","size_leaf_vector":"0"}},{"base_weights":[3.907812E-3],"categories":[],"categories_nodes":[],"categories_segments":[],"categories_sizes":[],"default_left":[0],"id":91,"left_children":[-1],"loss_changes":[0E0],"parents":[2147483647],"right_children":[-1],"split_conditions":[3.9078118E-4],"split_indices":[0],"split_type":[0],"sum_hessian":[1.997622E0],"tree_param":{"num_deleted":"0","num_feature":"68","num_nodes":"1","size_leaf_vector":"0"}},{"base_weights":[3.6471582E-3],"categories":[],"categories_nodes":[],"categories_segments":[],"categories_sizes":[],"default_left":[0],"id":92,"left_children":[-1],"loss_changes":[0E0],"parents":[2147483647],"right_children":[-1],"split_conditions":[3.6471582E-4],"split_indices":[0],"split_type":[0],"sum_hessian":[1.9976443E0],"tree_param":{"num_deleted":"0","num_feature":"68","num_nodes":"1","size_leaf_vector":"0"}},{"base_weights":[3.4042315E-3],"categories":[],"categories_nodes":[],"categories_segments":[],"categories_sizes":[],"default_left":[0],"id":93,"left_children":[-1],"loss_changes":[0E0],"parents":[2147483647],"right_children":[-1],"split_conditions":[3.4042317E-4],"split_indices":[0],"split_type":[0],"sum_hessian":[1.9976661E0],"tree_param":{"num_deleted":"0","num_feature":"68","num_nodes":"1","size_leaf_vector":"0"}},{"base_weights":[3.1770382E-3],"categories":[],"categories_nodes":[],"categories_segments":[],"categories_sizes":[],"default_left":[0],"id":94,"left_children":[-1],"loss_changes":[0E0],"parents":[2147483647],"right_children":[-1],"split_conditions":[3.1770382E-4],"split_indices":[0],"split_type":[0],"sum_hessian":[1.9976856E0],"tree_param":{"num_deleted":"0","num_feature":"68","num_nodes":"1","size_leaf_vector":"0"}},{"base_weights":[2.9652112E-3],"categories":[],"categories_nodes":[],"categories_segments":[],"categories_sizes":[],"default_left":[0],"id":95,"left_children":[-1],"loss_changes":[0E0],"parents":[2147483647],"right_children":[-1],"split_conditions":[2.9652112E-4],"split_indices":[0],"split_type":[0],"sum_hessian":[1.9977041E0],"tree_param":{"num_deleted":"0","num_feature":"68","num_nodes":"1","size_leaf_vector":"0"}},{"base_weights":[2.7679775E-3],"categories":[],"categories_nodes":[],"categories_segments":[],"categories_sizes":[],"default_left":[0],"id":96,"left_children":[-1],"loss_changes":[0E0],"parents":[2147483647],"right_children":[-1],"split_conditions":[2.7679777E-4],"split_indices":[0],"split_type":[0],"sum_hessian":[1.9977233E0],"tree_param":{"num_deleted":"0","num_feature":"68","num_nodes":"1","size_leaf_vector":"0"}},{"base_weights":[2.583257E-3],"categories":[],"categories_nodes":[],"categories_segments":[],"categories_sizes":[],"default_left":[0],"id":97,"left_children":[-1],"loss_changes":[0E0],"parents":[2147483647],"right_children":[-1],"split_conditions":[2.583257E-4],"split_indices":[0],"split_type":[0],"sum_hessian":[1.9977391E0],"tree_param":{"num_deleted":"0","num_feature":"68","num_nodes":"1","size_leaf_vector":"0"}},{"base_weights":[2.4110165E-3],"categories":[],"categories_nodes":[],"categories_segments":[],"categories_sizes":[],"default_left":[0],"id":98,"left_children":[-1],"loss_changes":[0E0],"parents":[2147483647],"right_children":[-1],"split_conditions":[2.4110165E-4],"split_indices":[0],"split_type":[0],"sum_hessian":[1.9977546E0],"tree_param":{"num_deleted":"0","num_feature":"68","num_nodes":"1","size_leaf_vector":"0"}},{"base_weights":[2.251048E-3],"categories":[],"categories_nodes":[],"categories_segments":[],"categories_sizes":[],"default_left":[0],"id":99,"left_children":[-1],"loss_changes":[0E0],"parents":[2147483647],"right_children":[-1],"split_conditions":[2.2510481E-4],"split_indices":[0],"split_type":[0],"sum_hessian":[1.9977716E0],"tree_param":{"num_deleted":"0","num_feature":"68","num_nodes":"1","size_leaf_vector":"0"}},{"base_weights":[2.1008002E-3],"categories":[],"categories_nodes":[],"categories_segments":[],"categories_sizes":[],"default_left":[0],"id":100,"left_children":[-1],"loss_changes":[0E0],"parents":[2147483647],"right_children":[-1],"split_conditions":[2.1008002E-4],"split_indices":[0],"split_type":[0],"sum_hessian":[1.9977847E0],"tree_param":{"num_deleted":"0","num_feature":"68","num_nodes":"1","size_leaf_vector":"0"}},{"base_weights":[1.960598E-3],"categories":[],"categories_nodes":[],"categories_segments":[],"categories_sizes":[],"default_left":[0],"id":101,"left_children":[-1],"loss_changes":[0E0],"parents":[2147483647],"right_children":[-1],"split_conditions":[1.960598E-4],"split_indices":[0],"split_type":[0],"sum_hessian":[1.9977973E0],"tree_param":{"num_deleted":"0","num_feature":"68","num_nodes":"1","size_leaf_vector":"0"}},{"base_weights":[1.8298461E-3],"categories":[],"categories_nodes":[],"categories_segments":[],"categories_sizes":[],"default_left":[0],"id":102,"left_children":[-1],"loss_changes":[0E0],"parents":[2147483647],"right_children":[-1],"split_conditions":[1.8298462E-4],"split_indices":[0],"split_type":[0],"sum_hessian":[1.997809E0],"tree_param":{"num_deleted":"0","num_feature":"68","num_nodes":"1","size_leaf_vector":"0"}},{"base_weights":[1.7078978E-3],"categories":[],"categories_nodes":[],"categories_segments":[],"categories_sizes":[],"default_left":[0],"id":103,"left_children":[-1],"loss_changes":[0E0],"parents":[2147483647],"right_children":[-1],"split_conditions":[1.7078978E-4],"split_indices":[0],"split_type":[0],"sum_hessian":[1.9978205E0],"tree_param":{"num_deleted":"0","num_feature":"68","num_nodes":"1","size_leaf_vector":"0"}},{"base_weights":[1.5942552E-3],"categories":[],"categories_nodes":[],"categories_segments":[],"categories_sizes":[],"default_left":[0],"id":104,"left_children":[-1],"loss_changes":[0E0],"parents":[2147483647],"right_children":[-1],"split_conditions":[1.5942553E-4],"split_indices":[0],"split_type":[0],"sum_hessian":[1.9978316E0],"tree_param":{"num_deleted":"0","num_feature":"68","num_nodes":"1","size_leaf_vector":"0"}},{"base_weights":[1.4875409E-3],"categories":[],"categories_nodes":[],"categories_segments":[],"categories_sizes":[],"default_left":[0],"id":105,"left_children":[-1],"loss_changes":[0E0],"parents":[2147483647],"right_children":[-1],"split_conditions":[1.4875409E-4],"split_indices":[0],"split_type":[0],"sum_hessian":[1.9978402E0],"tree_param":{"num_deleted":"0","num_feature":"68","num_nodes":"1","size_leaf_vector":"0"}},{"base_weights":[1.3886804E-3],"categories":[],"categories_nodes":[],"categories_segments":[],"categories_sizes":[],"default_left":[0],"id":106,"left_children":[-1],"loss_changes":[0E0],"parents":[2147483647],"right_children":[-1],"split_conditions":[1.3886804E-4],"split_indices":[0],"split_type":[0],"sum_hessian":[1.9978504E0],"tree_param":{"num_deleted":"0","num_feature":"68","num_nodes":"1","size_leaf_vector":"0"}},{"base_weights":[1.295856E-3],"categories":[],"categories_nodes":[],"categories_segments":[],"categories_sizes":[],"default_left":[0],"id":107,"left_children":[-1],"loss_changes":[0E0],"parents":[2147483647],"right_children":[-1],"split_conditions":[1.295856E-4],"split_indices":[0],"split_type":[0],"sum_hessian":[1.9978582E0],"tree_param":{"num_deleted":"0","num_feature":"68","num_nodes":"1","size_leaf_vector":"0"}},{"base_weights":[1.2102142E-3],"categories":[],"categories_nodes":[],"categories_segments":[],"categories_sizes":[],"default_left":[0],"id":108,"left_children":[-1],"loss_changes":[0E0],"parents":[2147483647],"right_children":[-1],"split_conditions":[1.21021425E-4],"split_indices":[0],"split_type":[0],"sum_hessian":[1.9978688E0],"tree_param":{"num_deleted":"0","num_feature":"68","num_nodes":"1","size_leaf_vector":"0"}},{"base_weights":[1.1293076E-3],"categories":[],"categories_nodes":[],"categories_segments":[],"categories_sizes":[],"default_left":[0],"id":109,"left_children":[-1],"loss_changes":[0E0],"parents":[2147483647],"right_children":[-1],"split_conditions":[1.1293076E-4],"split_indices":[0],"split_type":[0],"sum_hessian":[1.9978759E0],"tree_param":{"num_deleted":"0","num_feature":"68","num_nodes":"1","size_leaf_vector":"0"}},{"base_weights":[1.0543488E-3],"categories":[],"categories_nodes":[],"categories_segments":[],"categories_sizes":[],"default_left":[0],"id":110,"left_children":[-1],"loss_changes":[0E0],"parents":[2147483647],"right_children":[-1],"split_conditions":[1.05434876E-4],"split_indices":[0],"split_type":[0],"sum_hessian":[1.9978842E0],"tree_param":{"num_deleted":"0","num_feature":"68","num_nodes":"1","size_leaf_vector":"0"}},{"base_weights":[9.83791E-4],"categories":[],"categories_nodes":[],"categories_segments":[],"categories_sizes":[],"default_left":[0],"id":111,"left_children":[-1],"loss_changes":[0E0],"parents":[2147483647],"right_children":[-1],"split_conditions":[9.8379096E-5],"split_indices":[0],"split_type":[0],"sum_hessian":[1.99789E0],"tree_param":{"num_deleted":"0","num_feature":"68","num_nodes":"1","size_leaf_vector":"0"}},{"base_weights":[9.176555E-4],"categories":[],"categories_nodes":[],"categories_segments":[],"categories_sizes":[],"default_left":[0],"id":112,"left_children":[-1],"loss_changes":[0E0],"parents":[2147483647],"right_children":[-1],"split_conditions":[9.176555E-5],"split_indices":[0],"split_type":[0],"sum_hessian":[1.9978944E0],"tree_param":{"num_deleted":"0","num_feature":"68","num_nodes":"1","size_leaf_vector":"0"}},{"base_weights":[8.570598E-4],"categories":[],"categories_nodes":[],"categories_segments":[],"categories_sizes":[],"default_left":[0],"id":113,"left_children":[-1],"loss_changes":[0E0],"parents":[2147483647],"right_children":[-1],"split_conditions":[8.570598E-5],"split_indices":[0],"split_type":[0],"sum_hessian":[1.9979019E0],"tree_param":{"num_deleted":"0","num_feature":"68","num_nodes":"1","size_leaf_vector":"0"}},{"base_weights":[7.9995155E-4],"categories":[],"categories_nodes":[],"categories_segments":[],"categories_sizes":[],"default_left":[0],"id":114,"left_children":[-1],"loss_changes":[0E0],"parents":[2147483647],"right_children":[-1],"split_conditions":[7.999516E-5],"split_indices":[0],"split_type":[0],"sum_hessian":[1.9979074E0],"tree_param":{"num_deleted":"0","num_feature":"68","num_nodes":"1","size_leaf_vector":"0"}},{"base_weights":[7.461484E-4],"categories":[],"categories_nodes":[],"categories_segments":[],"categories_sizes":[],"default_left":[0],"id":115,"left_children":[-1],"loss_changes":[0E0],"parents":[2147483647],"right_children":[-1],"split_conditions":[7.461484E-5],"split_indices":[0],"split_type":[0],"sum_hessian":[1.9979113E0],"tree_param":{"num_deleted":"0","num_feature":"68","num_nodes":"1","size_leaf_vector":"0"}},{"base_weights":[6.9676735E-4],"categories":[],"categories_nodes":[],"categories_segments":[],"categories_sizes":[],"default_left":[0],"id":116,"left_children":[-1],"loss_changes":[0E0],"parents":[2147483647],"right_children":[-1],"split_conditions":[6.967674E-5],"split_indices":[0],"split_type":[0],"sum_hessian":[1.997917E0],"tree_param":{"num_deleted":"0","num_feature":"68","num_nodes":"1","size_leaf_vector":"0"}},{"base_weights":[6.5014587E-4],"categories":[],"categories_nodes":[],"categories_segments":[],"categories_sizes":[],"default_left":[0],"id":117,"left_children":[-1],"loss_changes":[0E0],"parents":[2147483647],"right_children":[-1],"split_conditions":[6.501459E-5],"split_indices":[0],"split_type":[0],"sum_hessian":[1.9979209E0],"tree_param":{"num_deleted":"0","num_feature":"68","num_nodes":"1","size_leaf_vector":"0"}},{"base_weights":[6.067944E-4],"categories":[],"categories_nodes":[],"categories_segments":[],"categories_sizes":[],"default_left":[0],"id":118,"left_children":[-1],"loss_changes":[0E0],"parents":[2147483647],"right_children":[-1],"split_conditions":[6.067944E-5],"split_indices":[0],"split_type":[0],"sum_hessian":[1.9979249E0],"tree_param":{"num_deleted":"0","num_feature":"68","num_nodes":"1","size_leaf_vector":"0"}},{"base_weights":[5.666873E-4],"categories":[],"categories_nodes":[],"categories_segments":[],"categories_sizes":[],"default_left":[0],"id":119,"left_children":[-1],"loss_changes":[0E0],"parents":[2147483647],"right_children":[-1],"split_conditions":[5.6668734E-5],"split_indices":[0],"split_type":[0],"sum_hessian":[1.9979298E0],"tree_param":{"num_deleted":"0","num_feature":"68","num_nodes":"1","size_leaf_vector":"0"}},{"base_weights":[5.290167E-4],"categories":[],"categories_nodes":[],"categories_segments":[],"categories_sizes":[],"default_left":[0],"id":120,"left_children":[-1],"loss_changes":[0E0],"parents":[2147483647],"right_children":[-1],"split_conditions":[5.2901672E-5],"split_indices":[0],"split_type":[0],"sum_hessian":[1.997934E0],"tree_param":{"num_deleted":"0","num_feature":"68","num_nodes":"1","size_leaf_vector":"0"}},{"base_weights":[4.935272E-4],"categories":[],"categories_nodes":[],"categories_segments":[],"categories_sizes":[],"default_left":[0],"id":121,"left_children":[-1],"loss_changes":[0E0],"parents":[2147483647],"right_children":[-1],"split_conditions":[4.9352722E-5],"split_indices":[0],"split_type":[0],"sum_hessian":[1.9979367E0],"tree_param":{"num_deleted":"0","num_feature":"68","num_nodes":"1","size_leaf_vector":"0"}},{"base_weights":[4.6022315E-4],"categories":[],"categories_nodes":[],"categories_segments":[],"categories_sizes":[],"default_left":[0],"id":122,"left_children":[-1],"loss_changes":[0E0],"parents":[2147483647],"right_children":[-1],"split_conditions":[4.6022316E-5],"split_indices":[0],"split_type":[0],"sum_hessian":[1.9979389E0],"tree_param":{"num_deleted":"0","num_feature":"68","num_nodes":"1","size_leaf_vector":"0"}},{"base_weights":[4.2995112E-4],"categories":[],"categories_nodes":[],"categories_segments":[],"categories_sizes":[],"default_left":[0],"id":123,"left_children":[-1],"loss_changes":[0E0],"parents":[2147483647],"right_children":[-1],"split_conditions":[4.2995114E-5],"split_indices":[0],"split_type":[0],"sum_hessian":[1.9979433E0],"tree_param":{"num_deleted":"0","num_feature":"68","num_nodes":"1","size_leaf_vector":"0"}},{"base_weights":[4.0112014E-4],"categories":[],"categories_nodes":[],"categories_segments":[],"categories_sizes":[],"default_left":[0],"id":124,"left_children":[-1],"loss_changes":[0E0],"parents":[2147483647],"right_children":[-1],"split_conditions":[4.0112016E-5],"split_indices":[0],"split_type":[0],"sum_hessian":[1.9979454E0],"tree_param":{"num_deleted":"0","num_feature":"68","num_nodes":"1","size_leaf_vector":"0"}},{"base_weights":[3.7474814E-4],"categories":[],"categories_nodes":[],"categories_segments":[],"categories_sizes":[],"default_left":[0],"id":125,"left_children":[-1],"loss_changes":[0E0],"parents":[2147483647],"right_children":[-1],"split_conditions":[3.7474816E-5],"split_indices":[0],"split_type":[0],"sum_hessian":[1.997949E0],"tree_param":{"num_deleted":"0","num_feature":"68","num_nodes":"1","size_leaf_vector":"0"}},{"base_weights":[3.4955767E-4],"categories":[],"categories_nodes":[],"categories_segments":[],"categories_sizes":[],"default_left":[0],"id":126,"left_children":[-1],"loss_changes":[0E0],"parents":[2147483647],"right_children":[-1],"split_conditions":[3.4955767E-5],"split_indices":[0],"split_type":[0],"sum_hessian":[1.997951E0],"tree_param":{"num_deleted":"0","num_feature":"68","num_nodes":"1","size_leaf_vector":"0"}},{"base_weights":[3.257156E-4],"categories":[],"categories_nodes":[],"categories_segments":[],"categories_sizes":[],"default_left":[0],"id":127,"left_children":[-1],"loss_changes":[0E0],"parents":[2147483647],"right_children":[-1],"split_conditions":[3.2571563E-5],"split_indices":[0],"split_type":[0],"sum_hessian":[1.9979516E0],"tree_param":{"num_deleted":"0","num_feature":"68","num_nodes":"1","size_leaf_vector":"0"}},{"base_weights":[3.0462467E-4],"categories":[],"categories_nodes":[],"categories_segments":[],"categories_sizes":[],"default_left":[0],"id":128,"left_children":[-1],"loss_changes":[0E0],"parents":[2147483647],"right_children":[-1],"split_conditions":[3.0462468E-5],"split_indices":[0],"split_type":[0],"sum_hessian":[1.9979554E0],"tree_param":{"num_deleted":"0","num_feature":"68","num_nodes":"1","size_leaf_vector":"0"}},{"base_weights":[2.842744E-4],"categories":[],"categories_nodes":[],"categories_segments":[],"categories_sizes":[],"default_left":[0],"id":129,"left_children":[-1],"loss_changes":[0E0],"parents":[2147483647],"right_children":[-1],"split_conditions":[2.8427441E-5],"split_indices":[0],"split_type":[0],"sum_hessian":[1.9979575E0],"tree_param":{"num_deleted":"0","num_feature":"68","num_nodes":"1","size_leaf_vector":"0"}},{"base_weights":[2.6506712E-4],"categories":[],"categories_nodes":[],"categories_segments":[],"categories_sizes":[],"default_left":[0],"id":130,"left_children":[-1],"loss_changes":[0E0],"parents":[2147483647],"right_children":[-1],"split_conditions":[2.6506712E-5],"split_indices":[0],"split_type":[0],"sum_hessian":[1.9979587E0],"tree_param":{"num_deleted":"0","num_feature":"68","num_nodes":"1","size_leaf_vector":"0"}},{"base_weights":[2.4742287E-4],"categories":[],"categories_nodes":[],"categories_segments":[],"categories_sizes":[],"default_left":[0],"id":131,"left_children":[-1],"loss_changes":[0E0],"parents":[2147483647],"right_children":[-1],"split_conditions":[2.4742287E-5],"split_indices":[0],"split_type":[0],"sum_hessian":[1.9979606E0],"tree_param":{"num_deleted":"0","num_feature":"68","num_nodes":"1","size_leaf_vector":"0"}},{"base_weights":[2.3067351E-4],"categories":[],"categories_nodes":[],"categories_segments":[],"categories_sizes":[],"default_left":[0],"id":132,"left_children":[-1],"loss_changes":[0E0],"parents":[2147483647],"right_children":[-1],"split_conditions":[2.3067352E-5],"split_indices":[0],"split_type":[0],"sum_hessian":[1.9979616E0],"tree_param":{"num_deleted":"0","num_feature":"68","num_nodes":"1","size_leaf_vector":"0"}},{"base_weights":[2.1599916E-4],"categories":[],"categories_nodes":[],"categories_segments":[],"categories_sizes":[],"default_left":[0],"id":133,"left_children":[-1],"loss_changes":[0E0],"parents":[2147483647],"right_children":[-1],"split_conditions":[2.1599915E-5],"split_indices":[0],"split_type":[0],"sum_hessian":[1.9979651E0],"tree_param":{"num_deleted":"0","num_feature":"68","num_nodes":"1","size_leaf_vector":"0"}},{"base_weights":[2.0135484E-4],"categories":[],"categories_nodes":[],"categories_segments":[],"categories_sizes":[],"default_left":[0],"id":134,"left_children":[-1],"loss_changes":[0E0],"parents":[2147483647],"right_children":[-1],"split_conditions":[2.0135483E-5],"split_indices":[0],"split_type":[0],"sum_hessian":[1.9979657E0],"tree_param":{"num_deleted":"0","num_feature":"68","num_nodes":"1","size_leaf_vector":"0"}},{"base_weights":[1.8794317E-4],"categories":[],"categories_nodes":[],"categories_segments":[],"categories_sizes":[],"default_left":[0],"id":135,"left_children":[-1],"loss_changes":[0E0],"parents":[2147483647],"right_children":[-1],"split_conditions":[1.8794317E-5],"split_indices":[0],"split_type":[0],"sum_hessian":[1.9979669E0],"tree_param":{"num_deleted":"0","num_feature":"68","num_nodes":"1","size_leaf_vector":"0"}},{"base_weights":[1.7517335E-4],"categories":[],"categories_nodes":[],"categories_segments":[],"categories_sizes":[],"default_left":[0],"id":136,"left_children":[-1],"loss_changes":[0E0],"parents":[2147483647],"right_children":[-1],"split_conditions":[1.7517335E-5],"split_indices":[0],"split_type":[0],"sum_hessian":[1.9979672E0],"tree_param":{"num_deleted":"0","num_feature":"68","num_nodes":"1","size_leaf_vector":"0"}},{"base_weights":[1.6390326E-4],"categories":[],"categories_nodes":[],"categories_segments":[],"categories_sizes":[],"default_left":[0],"id":137,"left_children":[-1],"loss_changes":[0E0],"parents":[2147483647],"right_children":[-1],"split_conditions":[1.6390326E-5],"split_indices":[0],"split_type":[0],"sum_hessian":[1.9979696E0],"tree_param":{"num_deleted":"0","num_feature":"68","num_nodes":"1","size_leaf_vector":"0"}},{"base_weights":[1.5279978E-4],"categories":[],"categories_nodes":[],"categories_segments":[],"categories_sizes":[],"default_left":[0],"id":138,"left_children":[-1],"loss_changes":[0E0],"parents":[2147483647],"right_children":[-1],"split_conditions":[1.5279978E-5],"split_indices":[0],"split_type":[0],"sum_hessian":[1.99797E0],"tree_param":{"num_deleted":"0","num_feature":"68","num_nodes":"1","size_leaf_vector":"0"}},{"base_weights":[1.4289304E-4],"categories":[],"categories_nodes":[],"categories_segments":[],"categories_sizes":[],"default_left":[0],"id":139,"left_children":[-1],"loss_changes":[0E0],"parents":[2147483647],"right_children":[-1],"split_conditions":[1.4289304E-5],"split_indices":[0],"split_type":[0],"sum_hessian":[1.9979718E0],"tree_param":{"num_deleted":"0","num_feature":"68","num_nodes":"1","size_leaf_vector":"0"}},{"base_weights":[1.3281073E-4],"categories":[],"categories_nodes":[],"categories_segments":[],"categories_sizes":[],"default_left":[0],"id":140,"left_children":[-1],"loss_changes":[0E0],"parents":[2147483647],"right_children":[-1],"split_conditions":[1.3281074E-5],"split_indices":[0],"split_type":[0],"sum_hessian":[1.9979712E0],"tree_param":{"num_deleted":"0","num_feature":"68","num_nodes":"1","size_leaf_vector":"0"}},{"base_weights":[1.2445118E-4],"categories":[],"categories_nodes":[],"categories_segments":[],"categories_sizes":[],"default_left":[0],"id":141,"left_children":[-1],"loss_changes":[0E0],"parents":[2147483647],"right_children":[-1],"split_conditions":[1.2445118E-5],"split_indices":[0],"split_type":[0],"sum_hessian":[1.9979736E0],"tree_param":{"num_deleted":"0","num_feature":"68","num_nodes":"1","size_leaf_vector":"0"}},{"base_weights":[1.1592661E-4],"categories":[],"categories_nodes":[],"categories_segments":[],"categories_sizes":[],"default_left":[0],"id":142,"left_children":[-1],"loss_changes":[0E0],"parents":[2147483647],"right_children":[-1],"split_conditions":[1.1592661E-5],"split_indices":[0],"split_type":[0],"sum_hessian":[1.9979736E0],"tree_param":{"num_deleted":"0","num_feature":"68","num_nodes":"1","size_leaf_vector":"0"}},{"base_weights":[1.0843366E-4],"categories":[],"categories_nodes":[],"categories_segments":[],"categories_sizes":[],"default_left":[0],"id":143,"left_children":[-1],"loss_changes":[0E0],"parents":[2147483647],"right_children":[-1],"split_conditions":[1.0843366E-5],"split_indices":[0],"split_type":[0],"sum_hessian":[1.997975E0],"tree_param":{"num_deleted":"0","num_feature":"68","num_nodes":"1","size_leaf_vector":"0"}},{"base_weights":[1.0117793E-4],"categories":[],"categories_nodes":[],"categories_segments":[],"categories_sizes":[],"default_left":[0],"id":144,"left_children":[-1],"loss_changes":[0E0],"parents":[2147483647],"right_children":[-1],"split_conditions":[1.0117793E-5],"split_indices":[0],"split_type":[0],"sum_hessian":[1.9979756E0],"tree_param":{"num_deleted":"0","num_feature":"68","num_nodes":"1","size_leaf_vector":"0"}},{"base_weights":[9.4228526E-5],"categories":[],"categories_nodes":[],"categories_segments":[],"categories_sizes":[],"default_left":[0],"id":145,"left_children":[-1],"loss_changes":[0E0],"parents":[2147483647],"right_children":[-1],"split_conditions":[9.422853E-6],"split_indices":[0],"split_type":[0],"sum_hessian":[1.9979755E0],"tree_param":{"num_deleted":"0","num_feature":"68","num_nodes":"1","size_leaf_vector":"0"}},{"base_weights":[8.7928514E-5],"categories":[],"categories_nodes":[],"categories_segments":[],"categories_sizes":[],"default_left":[0],"id":146,"left_children":[-1],"loss_changes":[0E0],"parents":[2147483647],"right_children":[-1],"split_conditions":[8.792852E-6],"split_indices":[0],"split_type":[0],"sum_hessian":[1.9979763E0],"tree_param":{"num_deleted":"0","num_feature":"68","num_nodes":"1","size_leaf_vector":"0"}},{"base_weights":[8.2435705E-5],"categories":[],"categories_nodes":[],"categories_segments":[],"categories_sizes":[],"default_left":[0],"id":147,"left_children":[-1],"loss_changes":[0E0],"parents":[2147483647],"right_children":[-1],"split_conditions":[8.243571E-6],"split_indices":[0],"split_type":[0],"sum_hessian":[1.9979779E0],"tree_param":{"num_deleted":"0","num_feature":"68","num_nodes":"1","size_leaf_vector":"0"}},{"base_weights":[7.673496E-5],"categories":[],"categories_nodes":[],"categories_segments":[],"categories_sizes":[],"default_left":[0],"id":148,"left_children":[-1],"loss_changes":[0E0],"parents":[2147483647],"right_children":[-1],"split_conditions":[7.673497E-6],"split_indices":[0],"split_type":[0],"sum_hessian":[1.9979776E0],"tree_param":{"num_deleted":"0","num_feature":"68","num_nodes":"1","size_leaf_vector":"0"}},{"base_weights":[7.21915E-5],"categories":[],"categories_nodes":[],"categories_segments":[],"categories_sizes":[],"default_left":[0],"id":149,"left_children":[-1],"loss_changes":[0E0],"parents":[2147483647],"right_children":[-1],"split_conditions":[7.21915E-6],"split_indices":[0],"split_type":[0],"sum_hessian":[1.9979798E0],"tree_param":{"num_deleted":"0","num_feature":"68","num_nodes":"1","size_leaf_vector":"0"}},{"base_weights":[6.724781E-5],"categories":[],"categories_nodes":[],"categories_segments":[],"categories_sizes":[],"default_left":[0],"id":150,"left_children":[-1],"loss_changes":[0E0],"parents":[2147483647],"right_children":[-1],"split_conditions":[6.7247815E-6],"split_indices":[0],"split_type":[0],"sum_hessian":[1.9979798E0],"tree_param":{"num_deleted":"0","num_feature":"68","num_nodes":"1","size_leaf_vector":"0"}},{"base_weights":[6.327844E-5],"categories":[],"categories_nodes":[],"categories_segments":[],"categories_sizes":[],"default_left":[0],"id":151,"left_children":[-1],"loss_changes":[0E0],"parents":[2147483647],"right_children":[-1],"split_conditions":[6.3278444E-6],"split_indices":[0],"split_type":[0],"sum_hessian":[1.9979815E0],"tree_param":{"num_deleted":"0","num_feature":"68","num_nodes":"1","size_leaf_vector":"0"}},{"base_weights":[5.8262885E-5],"categories":[],"categories_nodes":[],"categories_segments":[],"categories_sizes":[],"default_left":[0],"id":152,"left_children":[-1],"loss_changes":[0E0],"parents":[2147483647],"right_children":[-1],"split_conditions":[5.8262885E-6],"split_indices":[0],"split_type":[0],"sum_hessian":[1.9979796E0],"tree_param":{"num_deleted":"0","num_feature":"68","num_nodes":"1","size_leaf_vector":"0"}},{"base_weights":[5.4609314E-5],"categories":[],"categories_nodes":[],"categories_segments":[],"categories_sizes":[],"default_left":[0],"id":153,"left_children":[-1],"loss_changes":[0E0],"parents":[2147483647],"right_children":[-1],"split_conditions":[5.4609313E-6],"split_indices":[0],"split_type":[0],"sum_hessian":[1.9979805E0],"tree_param":{"num_deleted":"0","num_feature":"68","num_nodes":"1","size_leaf_vector":"0"}},{"base_weights":[5.1242783E-5],"categories":[],"categories_nodes":[],"categories_segments":[],"categories_sizes":[],"default_left":[0],"id":154,"left_children":[-1],"loss_changes":[0E0],"parents":[2147483647],"right_children":[-1],"split_conditions":[5.1242782E-6],"split_indices":[0],"split_type":[0],"sum_hessian":[1.9979815E0],"tree_param":{"num_deleted":"0","num_feature":"68","num_nodes":"1","size_leaf_vector":"0"}},{"base_weights":[4.7903133E-5],"categories":[],"categories_nodes":[],"categories_segments":[],"categories_sizes":[],"default_left":[0],"id":155,"left_children":[-1],"loss_changes":[0E0],"parents":[2147483647],"right_children":[-1],"split_conditions":[4.7903136E-6],"split_indices":[0],"split_type":[0],"sum_hessian":[1.9979821E0],"tree_param":{"num_deleted":"0","num_feature":"68","num_nodes":"1","size_leaf_vector":"0"}},{"base_weights":[4.466352E-5],"categories":[],"categories_nodes":[],"categories_segments":[],"categories_sizes":[],"default_left":[0],"id":156,"left_children":[-1],"loss_changes":[0E0],"parents":[2147483647],"right_children":[-1],"split_conditions":[4.466352E-6],"split_indices":[0],"split_type":[0],"sum_hessian":[1.9979823E0],"tree_param":{"num_deleted":"0","num_feature":"68","num_nodes":"1","size_leaf_vector":"0"}},{"base_weights":[4.1203828E-5],"categories":[],"categories_nodes":[],"categories_segments":[],"categories_sizes":[],"default_left":[0],"id":157,"left_children":[-1],"loss_changes":[0E0],"parents":[2147483647],"right_children":[-1],"split_conditions":[4.120383E-6],"split_indices":[0],"split_type":[0],"sum_hessian":[1.997981E0],"tree_param":{"num_deleted":"0","num_feature":"68","num_nodes":"1","size_leaf_vector":"0"}},{"base_weights":[3.8659284E-5],"categories":[],"categories_nodes":[],"categories_segments":[],"categories_sizes":[],"default_left":[0],"id":158,"left_children":[-1],"loss_changes":[0E0],"parents":[2147483647],"right_children":[-1],"split_conditions":[3.8659286E-6],"split_indices":[0],"split_type":[0],"sum_hessian":[1.997982E0],"tree_param":{"num_deleted":"0","num_feature":"68","num_nodes":"1","size_leaf_vector":"0"}},{"base_weights":[3.6238693E-5],"categories":[],"categories_nodes":[],"categories_segments":[],"categories_sizes":[],"default_left":[0],"id":159,"left_children":[-1],"loss_changes":[0E0],"parents":[2147483647],"right_children":[-1],"split_conditions":[3.6238694E-6],"split_indices":[0],"split_type":[0],"sum_hessian":[1.9979826E0],"tree_param":{"num_deleted":"0","num_feature":"68","num_nodes":"1","size_leaf_vector":"0"}},{"base_weights":[3.387837E-5],"categories":[],"categories_nodes":[],"categories_segments":[],"categories_sizes":[],"default_left":[0],"id":160,"left_children":[-1],"loss_changes":[0E0],"parents":[2147483647],"right_children":[-1],"split_conditions":[3.3878368E-6],"split_indices":[0],"split_type":[0],"sum_hessian":[1.9979831E0],"tree_param":{"num_deleted":"0","num_feature":"68","num_nodes":"1","size_leaf_vector":"0"}},{"base_weights":[3.1578787E-5],"categories":[],"categories_nodes":[],"categories_segments":[],"categories_sizes":[],"default_left":[0],"id":161,"left_children":[-1],"loss_changes":[0E0],"parents":[2147483647],"right_children":[-1],"split_conditions":[3.1578788E-6],"split_indices":[0],"split_type":[0],"sum_hessian":[1.9979831E0],"tree_param":{"num_deleted":"0","num_feature":"68","num_nodes":"1","size_leaf_vector":"0"}},{"base_weights":[2.9520415E-5],"categories":[],"categories_nodes":[],"categories_segments":[],"categories_sizes":[],"default_left":[0],"id":162,"left_children":[-1],"loss_changes":[0E0],"parents":[2147483647],"right_children":[-1],"split_conditions":[2.9520415E-6],"split_indices":[0],"split_type":[0],"sum_hessian":[1.9979836E0],"tree_param":{"num_deleted":"0","num_feature":"68","num_nodes":"1","size_leaf_vector":"0"}},{"base_weights":[2.7692084E-5],"categories":[],"categories_nodes":[],"categories_segments":[],"categories_sizes":[],"default_left":[0],"id":163,"left_children":[-1],"loss_changes":[0E0],"parents":[2147483647],"right_children":[-1],"split_conditions":[2.7692083E-6],"split_indices":[0],"split_type":[0],"sum_hessian":[1.997984E0],"tree_param":{"num_deleted":"0","num_feature":"68","num_nodes":"1","size_leaf_vector":"0"}},{"base_weights":[2.592386E-5],"categories":[],"categories_nodes":[],"categories_segments":[],"categories_sizes":[],"default_left":[0],"id":164,"left_children":[-1],"loss_changes":[0E0],"parents":[2147483647],"right_children":[-1],"split_conditions":[2.5923862E-6],"split_indices":[0],"split_type":[0],"sum_hessian":[1.9979845E0],"tree_param":{"num_deleted":"0","num_feature":"68","num_nodes":"1","size_leaf_vector":"0"}},{"base_weights":[2.425738E-5],"categories":[],"categories_nodes":[],"categories_segments":[],"categories_sizes":[],"default_left":[0],"id":165,"left_children":[-1],"loss_changes":[0E0],"parents":[2147483647],"right_children":[-1],"split_conditions":[2.425738E-6],"split_indices":[0],"split_type":[0],"sum_hessian":[1.9979848E0],"tree_param":{"num_deleted":"0","num_feature":"68","num_nodes":"1","size_leaf_vector":"0"}},{"base_weights":[2.2214092E-5],"categories":[],"categories_nodes":[],"categories_segments":[],"categories_sizes":[],"default_left":[0],"id":166,"left_children":[-1],"loss_changes":[0E0],"parents":[2147483647],"right_children":[-1],"split_conditions":[2.2214092E-6],"split_indices":[0],"split_type":[0],"sum_hessian":[1.9979836E0],"tree_param":{"num_deleted":"0","num_feature":"68","num_nodes":"1","size_leaf_vector":"0"}},{"base_weights":[2.0511268E-5],"categories":[],"categories_nodes":[],"categories_segments":[],"categories_sizes":[],"default_left":[0],"id":167,"left_children":[-1],"loss_changes":[0E0],"parents":[2147483647],"right_children":[-1],"split_conditions":[2.0511268E-6],"split_indices":[0],"split_type":[0],"sum_hessian":[1.9979832E0],"tree_param":{"num_deleted":"0","num_feature":"68","num_nodes":"1","size_leaf_vector":"0"}},{"base_weights":[1.9228128E-5],"categories":[],"categories_nodes":[],"categories_segments":[],"categories_sizes":[],"default_left":[0],"id":168,"left_children":[-1],"loss_changes":[0E0],"parents":[2147483647],"right_children":[-1],"split_conditions":[1.9228128E-6],"split_indices":[0],"split_type":[0],"sum_hessian":[1.9979835E0],"tree_param":{"num_deleted":"0","num_feature":"68","num_nodes":"1","size_leaf_vector":"0"}},{"base_weights":[1.7869812E-5],"categories":[],"categories_nodes":[],"categories_segments":[],"categories_sizes":[],"default_left":[0],"id":169,"left_children":[-1],"loss_changes":[0E0],"parents":[2147483647],"right_children":[-1],"split_conditions":[1.7869812E-6],"split_indices":[0],"split_type":[0],"sum_hessian":[1.9979833E0],"tree_param":{"num_deleted":"0","num_feature":"68","num_nodes":"1","size_leaf_vector":"0"}},{"base_weights":[1.6854605E-5],"categories":[],"categories_nodes":[],"categories_segments":[],"categories_sizes":[],"default_left":[0],"id":170,"left_children":[-1],"loss_changes":[0E0],"parents":[2147483647],"right_children":[-1],"split_conditions":[1.6854605E-6],"split_indices":[0],"split_type":[0],"sum_hessian":[1.9979839E0],"tree_param":{"num_deleted":"0","num_feature":"68","num_nodes":"1","size_leaf_vector":"0"}},{"base_weights":[1.6051725E-5],"categories":[],"categories_nodes":[],"categories_segments":[],"categories_sizes":[],"default_left":[0],"id":171,"left_children":[-1],"loss_changes":[0E0],"parents":[2147483647],"right_children":[-1],"split_conditions":[1.6051725E-6],"split_indices":[0],"split_type":[0],"sum_hessian":[1.9979852E0],"tree_param":{"num_deleted":"0","num_feature":"68","num_nodes":"1","size_leaf_vector":"0"}},{"base_weights":[1.4874055E-5],"categories":[],"categories_nodes":[],"categories_segments":[],"categories_sizes":[],"default_left":[0],"id":172,"left_children":[-1],"loss_changes":[0E0],"parents":[2147483647],"right_children":[-1],"split_conditions":[1.4874055E-6],"split_indices":[0],"split_type":[0],"sum_hessian":[1.9979849E0],"tree_param":{"num_deleted":"0","num_feature":"68","num_nodes":"1","size_leaf_vector":"0"}},{"base_weights":[1.4089817E-5],"categories":[],"categories_nodes":[],"categories_segments":[],"categories_sizes":[],"default_left":[0],"id":173,"left_children":[-1],"loss_changes":[0E0],"parents":[2147483647],"right_children":[-1],"split_conditions":[1.4089818E-6],"split_indices":[0],"split_type":[0],"sum_hessian":[1.9979855E0],"tree_param":{"num_deleted":"0","num_feature":"68","num_nodes":"1","size_leaf_vector":"0"}},{"base_weights":[1.3133172E-5],"categories":[],"categories_nodes":[],"categories_segments":[],"categories_sizes":[],"default_left":[0],"id":174,"left_children":[-1],"loss_changes":[0E0],"parents":[2147483647],"right_children":[-1],"split_conditions":[1.3133172E-6],"split_indices":[0],"split_type":[0],"sum_hessian":[1.9979856E0],"tree_param":{"num_deleted":"0","num_feature":"68","num_nodes":"1","size_leaf_vector":"0"}},{"base_weights":[1.2147325E-5],"categories":[],"categories_nodes":[],"categories_segments":[],"categories_sizes":[],"default_left":[0],"id":175,"left_children":[-1],"loss_changes":[0E0],"parents":[2147483647],"right_children":[-1],"split_conditions":[1.2147325E-6],"split_indices":[0],"split_type":[0],"sum_hessian":[1.9979856E0],"tree_param":{"num_deleted":"0","num_feature":"68","num_nodes":"1","size_leaf_vector":"0"}},{"base_weights":[1.130034E-5],"categories":[],"categories_nodes":[],"categories_segments":[],"categories_sizes":[],"default_left":[0],"id":176,"left_children":[-1],"loss_changes":[0E0],"parents":[2147483647],"right_children":[-1],"split_conditions":[1.130034E-6],"split_indices":[0],"split_type":[0],"sum_hessian":[1.9979857E0],"tree_param":{"num_deleted":"0","num_feature":"68","num_nodes":"1","size_leaf_vector":"0"}},{"base_weights":[1.0777825E-5],"categories":[],"categories_nodes":[],"categories_segments":[],"categories_sizes":[],"default_left":[0],"id":177,"left_children":[-1],"loss_changes":[0E0],"parents":[2147483647],"right_children":[-1],"split_conditions":[1.0777825E-6],"split_indices":[0],"split_type":[0],"sum_hessian":[1.9979863E0],"tree_param":{"num_deleted":"0","num_feature":"68","num_nodes":"1","size_leaf_vector":"0"}},{"base_weights":[9.782351E-6],"categories":[],"categories_nodes":[],"categories_segments":[],"categories_sizes":[],"default_left":[0],"id":178,"left_children":[-1],"loss_changes":[0E0],"parents":[2147483647],"right_children":[-1],"split_conditions":[9.782351E-7],"split_indices":[0],"split_type":[0],"sum_hessian":[1.9979856E0],"tree_param":{"num_deleted":"0","num_feature":"68","num_nodes":"1","size_leaf_vector":"0"}},{"base_weights":[9.216192E-6],"categories":[],"categories_nodes":[],"categories_segments":[],"categories_sizes":[],"default_left":[0],"id":179,"left_children":[-1],"loss_changes":[0E0],"parents":[2147483647],"right_children":[-1],"split_conditions":[9.216192E-7],"split_indices":[0],"split_type":[0],"sum_hessian":[1.9979858E0],"tree_param":{"num_deleted":"0","num_feature":"68","num_nodes":"1","size_leaf_vector":"0"}},{"base_weights":[8.396234E-6],"categories":[],"categories_nodes":[],"categories_segments":[],"categories_sizes":[],"default_left":[0],"id":180,"left_children":[-1],"loss_changes":[0E0],"parents":[2147483647],"right_children":[-1],"split_conditions":[8.396234E-7],"split_indices":[0],"split_type":[0],"sum_hessian":[1.9979854E0],"tree_param":{"num_deleted":"0","num_feature":"68","num_nodes":"1","size_leaf_vector":"0"}},{"base_weights":[7.876206E-6],"categories":[],"categories_nodes":[],"categories_segments":[],"categories_sizes":[],"default_left":[0],"id":181,"left_children":[-1],"loss_changes":[0E0],"parents":[2147483647],"right_children":[-1],"split_conditions":[7.876206E-7],"split_indices":[0],"split_type":[0],"sum_hessian":[1.9979857E0],"tree_param":{"num_deleted":"0","num_feature":"68","num_nodes":"1","size_leaf_vector":"0"}},{"base_weights":[7.2789826E-6],"categories":[],"categories_nodes":[],"categories_segments":[],"categories_sizes":[],"default_left":[0],"id":182,"left_children":[-1],"loss_changes":[0E0],"parents":[2147483647],"right_children":[-1],"split_conditions":[7.278983E-7],"split_indices":[0],"split_type":[0],"sum_hessian":[1.9979856E0],"tree_param":{"num_deleted":"0","num_feature":"68","num_nodes":"1","size_leaf_vector":"0"}},{"base_weights":[6.9009207E-6],"categories":[],"categories_nodes":[],"categories_segments":[],"categories_sizes":[],"default_left":[0],"id":183,"left_children":[-1],"loss_changes":[0E0],"parents":[2147483647],"right_children":[-1],"split_conditions":[6.9009207E-7],"split_indices":[0],"split_type":[0],"sum_hessian":[1.9979862E0],"tree_param":{"num_deleted":"0","num_feature":"68","num_nodes":"1","size_leaf_vector":"0"}},{"base_weights":[6.4003098E-6],"categories":[],"categories_nodes":[],"categories_segments":[],"categories_sizes":[],"default_left":[0],"id":184,"left_children":[-1],"loss_changes":[0E0],"parents":[2147483647],"right_children":[-1],"split_conditions":[6.40031E-7],"split_indices":[0],"split_type":[0],"sum_hessian":[1.997986E0],"tree_param":{"num_deleted":"0","num_feature":"68","num_nodes":"1","size_leaf_vector":"0"}},{"base_weights":[6.0415096E-6],"categories":[],"categories_nodes":[],"categories_segments":[],"categories_sizes":[],"default_left":[0],"id":185,"left_children":[-1],"loss_changes":[0E0],"parents":[2147483647],"right_children":[-1],"split_conditions":[6.0415096E-7],"split_indices":[0],"split_type":[0],"sum_hessian":[1.9979861E0],"tree_param":{"num_deleted":"0","num_feature":"68","num_nodes":"1","size_leaf_vector":"0"}},{"base_weights":[5.6834856E-6],"categories":[],"categories_nodes":[],"categories_segments":[],"categories_sizes":[],"default_left":[0],"id":186,"left_children":[-1],"loss_changes":[0E0],"parents":[2147483647],"right_children":[-1],"split_conditions":[5.683486E-7],"split_indices":[0],"split_type":[0],"sum_hessian":[1.9979863E0],"tree_param":{"num_deleted":"0","num_feature":"68","num_nodes":"1","size_leaf_vector":"0"}},{"base_weights":[5.2510622E-6],"categories":[],"categories_nodes":[],"categories_segments":[],"categories_sizes":[],"default_left":[0],"id":187,"left_children":[-1],"loss_changes":[0E0],"parents":[2147483647],"right_children":[-1],"split_conditions":[5.2510626E-7],"split_indices":[0],"split_type":[0],"sum_hessian":[1.9979861E0],"tree_param":{"num_deleted":"0","num_feature":"68","num_nodes":"1","size_leaf_vector":"0"}},{"base_weights":[5.055197E-6],"categories":[],"categories_nodes":[],"categories_segments":[],"categories_sizes":[],"default_left":[0],"id":188,"left_children":[-1],"loss_changes":[0E0],"parents":[2147483647],"right_children":[-1],"split_conditions":[5.055197E-7],"split_indices":[0],"split_type":[0],"sum_hessian":[1.9979863E0],"tree_param":{"num_deleted":"0","num_feature":"68","num_nodes":"1","size_leaf_vector":"0"}},{"base_weights":[4.7742146E-6],"categories":[],"categories_nodes":[],"categories_segments":[],"categories_sizes":[],"default_left":[0],"id":189,"left_children":[-1],"loss_changes":[0E0],"parents":[2147483647],"right_children":[-1],"split_conditions":[4.7742145E-7],"split_indices":[0],"split_type":[0],"sum_hessian":[1.9979866E0],"tree_param":{"num_deleted":"0","num_feature":"68","num_nodes":"1","size_leaf_vector":"0"}},{"base_weights":[4.532995E-6],"categories":[],"categories_nodes":[],"categories_segments":[],"categories_sizes":[],"default_left":[0],"id":190,"left_children":[-1],"loss_changes":[0E0],"parents":[2147483647],"right_children":[-1],"split_conditions":[4.532995E-7],"split_indices":[0],"split_type":[0],"sum_hessian":[1.9979868E0],"tree_param":{"num_deleted":"0","num_feature":"68","num_nodes":"1","size_leaf_vector":"0"}},{"base_weights":[3.6151837E-6],"categories":[],"categories_nodes":[],"categories_segments":[],"categories_sizes":[],"default_left":[0],"id":191,"left_children":[-1],"loss_changes":[0E0],"parents":[2147483647],"right_children":[-1],"split_conditions":[3.6151837E-7],"split_indices":[0],"split_type":[0],"sum_hessian":[1.997985E0],"tree_param":{"num_deleted":"0","num_feature":"68","num_nodes":"1","size_leaf_vector":"0"}},{"base_weights":[3.1625677E-6],"categories":[],"categories_nodes":[],"categories_segments":[],"categories_sizes":[],"default_left":[0],"id":192,"left_children":[-1],"loss_changes":[0E0],"parents":[2147483647],"right_children":[-1],"split_conditions":[3.1625677E-7],"split_indices":[0],"split_type":[0],"sum_hessian":[1.9979846E0],"tree_param":{"num_deleted":"0","num_feature":"68","num_nodes":"1","size_leaf_vector":"0"}},{"base_weights":[2.988293E-6],"categories":[],"categories_nodes":[],"categories_segments":[],"categories_sizes":[],"default_left":[0],"id":193,"left_children":[-1],"loss_changes":[0E0],"parents":[2147483647],"right_children":[-1],"split_conditions":[2.9882932E-7],"split_indices":[0],"split_type":[0],"sum_hessian":[1.9979848E0],"tree_param":{"num_deleted":"0","num_feature":"68","num_nodes":"1","size_leaf_vector":"0"}},{"base_weights":[2.7590338E-6],"categories":[],"categories_nodes":[],"categories_segments":[],"categories_sizes":[],"default_left":[0],"id":194,"left_children":[-1],"loss_changes":[0E0],"parents":[2147483647],"right_children":[-1],"split_conditions":[2.7590337E-7],"split_indices":[0],"split_type":[0],"sum_hessian":[1.9979849E0],"tree_param":{"num_deleted":"0","num_feature":"68","num_nodes":"1","size_leaf_vector":"0"}},{"base_weights":[2.5229401E-6],"categories":[],"categories_nodes":[],"categories_segments":[],"categories_sizes":[],"default_left":[0],"id":195,"left_children":[-1],"loss_changes":[0E0],"parents":[2147483647],"right_children":[-1],"split_conditions":[2.5229403E-7],"split_indices":[0],"split_type":[0],"sum_hessian":[1.9979849E0],"tree_param":{"num_deleted":"0","num_feature":"68","num_nodes":"1","size_leaf_vector":"0"}},{"base_weights":[2.3635766E-6],"categories":[],"categories_nodes":[],"categories_segments":[],"categories_sizes":[],"default_left":[0],"id":196,"left_children":[-1],"loss_changes":[0E0],"parents":[2147483647],"right_children":[-1],"split_conditions":[2.3635766E-7],"split_indices":[0],"split_type":[0],"sum_hessian":[1.9979851E0],"tree_param":{"num_deleted":"0","num_feature":"68","num_nodes":"1","size_leaf_vector":"0"}},{"base_weights":[2.2641689E-6],"categories":[],"categories_nodes":[],"categories_segments":[],"categories_sizes":[],"default_left":[0],"id":197,"left_children":[-1],"loss_changes":[0E0],"parents":[2147483647],"right_children":[-1],"split_conditions":[2.2641689E-7],"split_indices":[0],"split_type":[0],"sum_hessian":[1.9979851E0],"tree_param":{"num_deleted":"0","num_feature":"68","num_nodes":"1","size_leaf_vector":"0"}},{"base_weights":[2.2138436E-6],"categories":[],